svm_type epsilon_svr
kernel_type rbf
gamma 7.6294e-06
nr_class 2
total_sv 5567
rho -18.2815
SV
-4096 1:15.4846 2:-2.73656 3:528.351 4:-0.0600863 5:5.7043 6:5.2095 7:-0.317908 
-4096 1:0.479541 2:2.56624 3:-176.256 4:1.12462 5:-5.74539 6:3.24955 7:0.320616 
-4096 1:11.3492 2:-5.77343 3:280.243 4:-0.498489 5:-2.55417 6:-3.58453 7:-0.126852 
-4096 1:4.02432 2:-1.97601 3:327.578 4:-0.254 5:0.884042 6:-6.4294 7:-0.113277 
4096 1:1.34641 2:2.89593 3:-392.898 4:0.551481 5:8.83625 6:4.40954 7:-0.157492 
-4096 1:17.1039 2:1.77324 3:88.7104 4:0.704627 5:-7.58574 6:11.0648 7:0.150859 
-4096 1:10.6907 2:1.48476 3:83.2104 4:0.654176 5:-3.64924 6:4.48395 7:-0.154003 
-4096 1:17.7105 2:-0.712468 3:79.6918 4:0.595657 5:-9.90572 6:1.60464 7:0.0530221 
4096 1:-8.45513 2:3.26178 3:-213.266 4:0.18284 5:25.6701 6:0.184229 7:-0.579989 
-4096 1:-2.55456 2:-3.41818 3:-13.7631 4:-0.23325 5:-16.0991 6:-4.43984 7:0.204992 
-4096 1:-3.33455 2:-0.0870001 3:-117.914 4:0.348444 5:-10.3157 6:-1.68475 7:0.365047 
-4096 1:-4.60836 2:-5.62305 3:-315.003 4:0.790324 5:-0.54605 6:-4.93549 7:0.235482 
-4096 1:14.692 2:-4.69946 3:408.153 4:0.329364 5:-26.2129 6:-1.83393 7:0.295823 
-4096 1:25.5014 2:-3.71167 3:802.71 4:-0.261705 5:0.855953 6:9.11091 7:-0.388825 
-4096 1:17.1099 2:-1.96059 3:74.6612 4:0.802166 5:-3.55726 6:6.13411 7:0.0160722 
4096 1:26 2:-4.11713 3:371.961 4:0.766199 5:-16.1104 6:5.35275 7:0.142167 
-4096 1:24.3534 2:-1.83125 3:166.959 4:0.830886 5:-20.9877 6:16.1689 7:0.255351 
-4096 1:20.8316 2:-3.46247 3:-53.082 4:0.438843 5:-6.07478 6:2.57268 7:0.0684881 
-4096 1:7.40232 2:0.666533 3:238.031 4:0.542898 5:-2.8977 6:15.0308 7:-0.162671 
-4096 1:12.1224 2:1.84737 3:72.3714 4:0.596552 5:-9.82188 6:17.9534 7:0.257339 
4096 1:15.1758 2:-6.27128 3:-73.4034 4:0.970384 5:9.01149 6:-11.1536 7:-0.350066 
-4096 1:-0.699859 2:2.35625 3:104.63 4:0.547626 5:-1.06841 6:6.27899 7:0.0752772 
4096 1:-9.08572 2:4.33914 3:-560.603 4:0.67157 5:9.87565 6:0.536856 7:-0.106701 
-4096 1:-12.6201 2:14.2709 3:-281.344 4:0.711347 5:-2.17449 6:21.8261 7:0.0976499 
-4096 1:-19.1046 2:-2.95711 3:-77.7624 4:0.417569 5:-2.54572 6:-8.41965 7:-0.0642696 
-4096 1:10.3049 2:-6.51227 3:178.295 4:0.0168386 5:-6.15889 6:-6.7724 7:-0.11912 
-4096 1:13.6714 2:-9.26579 3:373.669 4:-0.0386307 5:8.60089 6:-7.75126 7:-0.321184 
-4096 1:1.72123 2:-7.84999 3:-240.595 4:0.932857 5:-12.3864 6:-11.557 7:0.217467 
-4096 1:13.1911 2:-11.5401 3:-329.044 4:0.888007 5:18.7123 6:-14.4203 7:-0.429533 
4096 1:-2.1186 2:2.21795 3:-44.7137 4:0.361795 5:-6.19759 6:8.65404 7:0.123991 
4096 1:-11.0292 2:9.09081 3:-250.372 4:0.472671 5:1.92739 6:10.8544 7:0.175882 
-4096 1:-8.98281 2:0.579533 3:-184.783 4:-0.708265 5:-29.0562 6:-7.59712 7:0.159904 
-4096 1:-10.6958 2:1.71523 3:-257.941 4:-0.17778 5:-13.2464 6:-4.94149 7:0.153468 
-4096 1:24.437 2:-3.5268 3:267.98 4:0.266375 5:-1.7482 6:6.38601 7:-0.149984 
-4096 1:22.0296 2:-4.2041 3:334.882 4:0.0553041 5:-3.96119 6:5.13589 7:-0.0740327 
-4096 1:19.682 2:-3.85027 3:545.11 4:0.232163 5:6.50911 6:3.1634 7:-0.435123 
-4096 1:19.2367 2:-6.59599 3:420.599 4:0.352224 5:5.43467 6:-0.670262 7:-0.470173 
-4096 1:-3.23809 2:-5.4226 3:-182.136 4:0.0203883 5:13.557 6:-4.9196 7:-0.443952 
4096 1:-2.17727 2:14.0534 3:345.404 4:0.285887 5:-7.06555 6:23.2306 7:0.165031 
4096 1:-1.89178 2:-1.84209 3:-160.643 4:0.332958 5:5.51944 6:-5.76808 7:-0.132567 
-4096 1:13.3868 2:-6.64843 3:267.391 4:0.48133 5:-0.343203 6:-7.51664 7:0.0633222 
-4096 1:-0.769122 2:-1.07688 3:-269.585 4:-0.168223 5:14.877 6:-7.98477 7:-0.388655 
-4096 1:-3.19301 2:2.12758 3:-387.291 4:0.214845 5:-6.89272 6:0.605304 7:0.392822 
-4096 1:4.90576 2:-4.95425 3:-64.06 4:0.430833 5:7.56722 6:2.04612 7:-0.218599 
-4096 1:12.567 2:-5.08508 3:5.93122 4:-0.649064 5:14.9951 6:2.70891 7:-0.372078 
-4096 1:3.04998 2:-11.8819 3:160.075 4:-0.0256198 5:2.51587 6:-21.289 7:-0.264323 
4096 1:-0.48164 2:-4.50035 3:-93.7094 4:-0.0809473 5:7.22321 6:-14.8953 7:-0.190765 
-4096 1:0.717354 2:3.36386 3:20.9175 4:-0.0269944 5:8.82376 6:7.56699 7:-0.109533 
-4096 1:15.5212 2:7.88051 3:637.425 4:0.197872 5:-10.933 6:34.8142 7:0.0237386 
-4096 1:25.8191 2:-7.59897 3:814.646 4:-0.25397 5:2.65707 6:-2.76455 7:-0.450903 
-4096 1:-2.10949 2:3.26475 3:-241.473 4:0.975763 5:10.8815 6:7.64225 7:-0.242757 
-4096 1:3.23006 2:-4.68893 3:-164.964 4:0.826381 5:4.30298 6:0.750305 7:-0.234146 
-4096 1:-1.32015 2:-0.185877 3:-483.9 4:1.21452 5:8.32122 6:11.0061 7:-0.220397 
-4096 1:-8.378 2:7.27898 3:-357.941 4:0.208316 5:1.92638 6:8.17917 7:-0.0635916 
-4096 1:15.738 2:-2.01744 3:226.239 4:0.299794 5:-11.9779 6:0.363003 7:0.0293121 
-4096 1:4.28841 2:-1.01261 3:149.285 4:0.902971 5:-4.36055 6:-1.71496 7:0.078071 
-4096 1:5.27935 2:-6.10629 3:301.584 4:0.734528 5:-3.13626 6:-12.2738 7:-0.0810715 
-4096 1:17.4404 2:-1.10231 3:452.582 4:0.136677 5:-2.87437 6:12.4686 7:-0.289647 
-4096 1:7.12704 2:-0.626803 3:204.887 4:0.157592 5:21.0718 6:4.75906 7:-0.668575 
-4096 1:-10.477 2:3.5494 3:-84.0846 4:-0.209134 5:-18.3156 6:5.52033 7:0.212797 
-4096 1:10.9255 2:-11.5101 3:282.762 4:-0.119045 5:5.94799 6:-28.2362 7:0.071387 
-4096 1:5.45672 2:-0.633294 3:262.208 4:0.0676421 5:4.76875 6:12.6641 7:-0.376881 
-4096 1:16.5062 2:5.7665 3:305.246 4:0.330592 5:0.766732 6:16.7295 7:-0.255118 
-4096 1:17.406 2:-9.14822 3:311.019 4:0.0684804 5:9.04945 6:-14.1493 7:-0.458443 
4096 1:10.0726 2:-1.22397 3:-65.4254 4:0.538896 5:2.12464 6:-1.48203 7:-0.15763 
-4096 1:8.2427 2:-0.877922 3:327.074 4:-0.375056 5:-14.5932 6:-11.5556 7:0.197967 
4096 1:4.51643 2:1.26665 3:102.651 4:0.0944471 5:-6.86774 6:3.95971 7:-0.062565 
-4096 1:-2.62299 2:-6.79063 3:-279.069 4:0.259077 5:0.299205 6:-17.0884 7:0.307755 
-4096 1:6.42543 2:-1.53731 3:-266.341 4:0.794165 5:-4.5595 6:-5.00643 7:0.176135 
-4096 1:2.89294 2:-3.21996 3:-300.883 4:0.8654 5:-2.45917 6:-5.23799 7:0.369234 
-4096 1:7.60197 2:-2.61476 3:-150.256 4:0.739605 5:-6.08726 6:-5.79726 7:0.42951 
-4096 1:7.35491 2:-5.7644 3:21.5569 4:0.970043 5:-9.33369 6:7.71751 7:0.0153396 
-4096 1:22.7545 2:-0.900931 3:355.759 4:0.543524 5:-24.1456 6:22.6269 7:0.317009 
-4096 1:21.7511 2:0.826013 3:111.52 4:0.499484 5:-17.7867 6:22.8488 7:0.180496 
-4096 1:2.14507 2:-11.5014 3:-9.73408 4:0.647029 5:7.81182 6:-16.0791 7:-0.206598 
-4096 1:5.40361 2:-11.0893 3:-115.706 4:0.742049 5:7.21432 6:-12.4672 7:-0.216442 
-4096 1:-6.91252 2:-4.02707 3:-82.9775 4:0.654335 5:-10.1739 6:-7.05506 7:0.491137 
-4096 1:10.2164 2:-10.2339 3:52.1176 4:0.889594 5:-2.99161 6:-11.9972 7:-0.0455612 
-4096 1:12.8386 2:1.89425 3:288.547 4:0.10211 5:18.7295 6:3.22095 7:-0.485402 
-4096 1:12.3641 2:-3.03514 3:-97.3004 4:0.976961 5:6.16491 6:-3.05852 7:-0.375504 
-4096 1:20.8592 2:-1.93658 3:78.975 4:0.354373 5:23.3881 6:10.527 7:-0.636263 
-4096 1:-12.5161 2:-6.04062 3:-321.114 4:0.629671 5:6.32884 6:-14.7796 7:-0.213631 
-4096 1:5.20411 2:-4.37971 3:-80.3406 4:0.226812 5:-16.5238 6:-6.54606 7:0.389134 
4096 1:-8.97067 2:-0.0275907 3:-416.753 4:0.64778 5:-2.89587 6:3.79085 7:0.173178 
-4096 1:3.37599 2:2.32082 3:-121.936 4:0.425139 5:17.7725 6:16.6838 7:-0.417496 
-4096 1:6.75752 2:3.47067 3:-206.651 4:-0.229827 5:13.8217 6:15.6583 7:-0.147368 
-4096 1:5.34356 2:3.25522 3:198.838 4:0.161804 5:7.34466 6:10.2768 7:-0.43402 
-4096 1:7.31092 2:-3.2397 3:-372.232 4:0.573285 5:-0.17754 6:-6.85393 7:0.0885192 
4096 1:6.13663 2:-8.92491 3:-352.544 4:0.675525 5:-5.11629 6:-20.9935 7:-0.106568 
4096 1:-2.38789 2:-0.861702 3:-187.085 4:0.545459 5:-3.27697 6:-2.39917 7:0.138561 
4096 1:-10.9888 2:4.71503 3:-147.824 4:0.263472 5:-20.1987 6:4.97048 7:0.394531 
-4096 1:0.312001 2:-1.56579 3:-259.182 4:0.80289 5:16.7801 6:-0.924973 7:-0.57984 
-4096 1:-0.317715 2:-1.31793 3:-176.738 4:0.260164 5:11.3499 6:2.35028 7:-0.422443 
-4096 1:-8.05242 2:0.771485 3:-567.983 4:0.602891 5:-15.3574 6:3.81122 7:0.639894 
-4096 1:-0.444461 2:12.3814 3:279.056 4:0.0944144 5:-1.07795 6:27.6373 7:-0.247057 
-4096 1:-0.379849 2:-4.56508 3:-407.772 4:0.682535 5:16.2941 6:-2.54867 7:-0.308541 
-4096 1:-5.78924 2:3.5707 3:-436.994 4:0.567172 5:7.50469 6:9.55281 7:0.0607312 
-4096 1:2.04982 2:-0.378335 3:-643.232 4:0.451316 5:9.56816 6:11.1447 7:-0.316272 
4096 1:11.4083 2:-0.498887 3:-7.01559 4:0.793885 5:19.9989 6:6.08404 7:-0.552543 
-4096 1:12.3642 2:-4.67254 3:305.288 4:0.144836 5:2.47043 6:16.2348 7:-0.0764936 
-4096 1:15.5175 2:-10.7654 3:684.103 4:-0.492909 5:11.7674 6:-14.4229 7:-0.528975 
-4096 1:20.1806 2:-3.66957 3:371.145 4:0.170947 5:9.75234 6:9.47353 7:-0.524949 
-4096 1:-1.53029 2:2.93461 3:-18.585 4:0.5698 5:18.6126 6:-2.27247 7:-0.396888 
-4096 1:10.7005 2:-9.06443 3:97.6881 4:-0.246955 5:24.2841 6:-17.4057 7:-0.619888 
-4096 1:23.9235 2:6.5574 3:879.734 4:-1.83533 5:-3.37899 6:23.4512 7:-0.299605 
-4096 1:-17.7713 2:9.15787 3:57.8724 4:0.323083 5:4.2523 6:15.1129 7:0.054808 
4096 1:-6.81131 2:-3.37961 3:-318.608 4:0.154864 5:-3.42314 6:-7.5578 7:0.0602026 
-4096 1:23.741 2:-4.6837 3:33.9699 4:0.102517 5:-8.18961 6:-0.951452 7:-0.146012 
-4096 1:-3.42612 2:0.214527 3:-58.5201 4:-0.267841 5:0.143398 6:2.688 7:-0.129499 
4096 1:-2.54775 2:1.65724 3:-88.6314 4:0.999188 5:-31.4131 6:15.9962 7:0.351437 
-4096 1:8.44196 2:-4.58129 3:37.4167 4:0.174697 5:3.81198 6:0.684061 7:-0.229914 
-4096 1:4.42229 2:4.48996 3:-109.842 4:0.85492 5:-20.7638 6:15.3936 7:0.511842 
-4096 1:-0.71968 2:2.70751 3:-138.474 4:0.394491 5:-24.9678 6:13.635 7:0.448796 
-4096 1:15.4592 2:-2.17939 3:838.904 4:-0.264422 5:8.3393 6:8.14453 7:-0.420743 
4096 1:-13.0862 2:9.73882 3:-238.212 4:0.901835 5:-18.0074 6:16.1144 7:0.684473 
-4096 1:-1.08083 2:2.38826 3:12.1586 4:0.329122 5:1.64261 6:-0.294941 7:-0.015107 
-4096 1:7.47551 2:-5.71686 3:-211.649 4:0.452027 5:9.86285 6:-10.0334 7:-0.28797 
-4096 1:7.21928 2:-6.49425 3:-252.914 4:0.0995561 5:5.46554 6:-19.2364 7:-0.00766231 
-4096 1:3.16378 2:-5.75933 3:-48.3313 4:0.240397 5:-4.3492 6:-4.72749 7:0.0876759 
-4096 1:9.22307 2:-4.36722 3:-136.882 4:0.497604 5:11.3955 6:-1.53912 7:-0.0403075 
-4096 1:5.23149 2:-2.06291 3:100.464 4:0.362454 5:-10.7702 6:7.80682 7:0.240978 
-4096 1:7.09059 2:-4.4928 3:-40.3182 4:0.163976 5:-11.9028 6:-5.05451 7:0.216807 
-4096 1:4.36424 2:-1.07181 3:-242.571 4:0.0474572 5:-7.91985 6:8.17617 7:0.17914 
-4096 1:3.36018 2:-2.16168 3:-234.974 4:0.0309166 5:26.8126 6:6.42584 7:-0.56386 
4096 1:8.02764 2:-3.62645 3:385.853 4:-0.274612 5:-5.37227 6:-5.16263 7:-0.110612 
-4096 1:-5.93721 2:-6.93837 3:-100.101 4:0.606845 5:20.8412 6:-8.70342 7:-0.529768 
-4096 1:-7.47082 2:4.24858 3:-46.8719 4:0.627666 5:12.6348 6:5.61479 7:-0.318006 
-4096 1:-10.3831 2:-4.6727 3:-491.932 4:0.744603 5:13.936 6:-4.57144 7:-0.396451 
4096 1:14.0597 2:-6.48927 3:62.8663 4:0.545777 5:21.3264 6:-1.91131 7:-0.596325 
-4096 1:10.9324 2:-1.99506 3:346.206 4:0.266717 5:-23.5553 6:-4.1111 7:0.274131 
4096 1:4.01482 2:-4.53505 3:32.5181 4:0.431412 5:18.9543 6:6.31065 7:-0.622875 
-4096 1:15.9436 2:-2.95465 3:248.565 4:-0.121336 5:9.42147 6:2.0871 7:-0.526292 
-4096 1:5.26801 2:-0.651404 3:-227.892 4:-0.0998984 5:8.18287 6:7.51059 7:-0.121073 
4096 1:10.4807 2:-4.60674 3:-277.233 4:-0.0889607 5:-3.30065 6:-12.4334 7:0.238111 
4096 1:22.2736 2:-0.450232 3:577.2 4:-0.314246 5:-13.397 6:2.25427 7:-0.18585 
4096 1:-3.47749 2:8.04578 3:309.798 4:-0.520146 5:-0.165643 6:22.479 7:-0.259644 
4096 1:22.5235 2:0.79029 3:636.272 4:-0.349583 5:-17.6501 6:12.265 7:-0.0868356 
4096 1:17.1968 2:5.19278 3:378.81 4:0.0837062 5:-14.6639 6:13.3671 7:-0.00326713 
-4096 1:5.15443 2:4.39743 3:198.71 4:0.227041 5:-7.58942 6:12.3652 7:0.250744 
4096 1:12.9288 2:-5.38575 3:57.9522 4:0.34863 5:15.0169 6:-10.0845 7:-0.435548 
4096 1:-1.92605 2:-0.651879 3:-94.2922 4:0.96776 5:-1.99678 6:3.38529 7:0.379049 
-4096 1:23.4336 2:-0.281493 3:731.516 4:0.0274754 5:12.2616 6:14.6715 7:-0.555759 
-4096 1:10.4702 2:-1.40743 3:305.975 4:0.275596 5:-29.1801 6:3.98036 7:0.136282 
-4096 1:-16.0216 2:8.19199 3:-292.498 4:0.41893 5:-8.80528 6:1.70672 7:0.427195 
-4096 1:16.5287 2:-7.38855 3:3.51629 4:0.850232 5:-0.0875913 6:-10.0893 7:-0.0479323 
4096 1:2.81144 2:8.18218 3:418.388 4:-0.747998 5:9.56487 6:10.1426 7:-0.312378 
4096 1:-3.78865 2:-2.23411 3:315.748 4:-0.0306095 5:18.1386 6:2.40296 7:-0.675382 
4096 1:3.87539 2:-4.09723 3:-246.305 4:0.729903 5:0.959119 6:3.72494 7:0.0523461 
4096 1:3.39707 2:-10.9199 3:-96.3106 4:0.202152 5:6.67313 6:-15.6849 7:-0.275107 
-4096 1:-3.55925 2:1.58446 3:-130.017 4:0.261441 5:2.10242 6:6.56772 7:-0.231259 
-4096 1:-3.05442 2:-0.907432 3:-225.557 4:0.516123 5:9.9964 6:-3.25562 7:-0.158135 
-4096 1:12.0895 2:9.11385 3:252.145 4:0.312806 5:-1.55798 6:19.1942 7:-0.0519014 
-4096 1:2.8328 2:2.26804 3:-279.505 4:-0.454514 5:11.7616 6:6.40863 7:-0.176117 
-4096 1:10.9522 2:-5.31297 3:19.2476 4:0.530924 5:6.04106 6:-3.00631 7:0.02614 
4096 1:6.38324 2:-3.751 3:67.9683 4:0.520646 5:14.0823 6:5.18752 7:-0.477498 
-4096 1:14.3654 2:-1.86846 3:123.914 4:0.640338 5:-13.3056 6:13.9427 7:0.126204 
-1894.957753193673 1:3.99439 2:-7.8725 3:-1600.75 4:2.09331 5:6.70793 6:-32.6182 7:0.854279 
-4096 1:27.3424 2:-1.56289 3:149.362 4:0.521652 5:2.28817 6:10.4883 7:-0.197047 
4096 1:0.997578 2:-9.26119 3:191.463 4:0.310489 5:5.52972 6:-16.8846 7:-0.155733 
4096 1:-2.21049 2:-2.62445 3:-89.2693 4:0.48436 5:1.2978 6:1.7703 7:-0.159954 
-4096 1:-9.89956 2:13.7789 3:67.0824 4:0.485404 5:-0.790719 6:21.5158 7:0.0779668 
-4096 1:17.4238 2:-8.19723 3:377.06 4:0.0436588 5:-0.951786 6:-11.6627 7:-0.182248 
4096 1:5.09083 2:-2.02899 3:-72.8316 4:0.747146 5:3.1401 6:11.0576 7:-0.0820068 
-4096 1:5.27905 2:-9.11776 3:-70.7472 4:0.102773 5:-10.5572 6:-15.1772 7:-0.115812 
4096 1:-11.1786 2:1.61449 3:-317.138 4:0.542944 5:0.0335482 6:5.01812 7:-0.0720671 
-4096 1:3.93429 2:1.74451 3:-321.071 4:0.378176 5:7.88424 6:1.9736 7:-0.0784391 
-4096 1:-0.223978 2:1.71001 3:154.406 4:-0.248984 5:0.492319 6:4.29648 7:-0.0634911 
4096 1:13.2613 2:-8.18562 3:56.1585 4:0.396269 5:12.3298 6:-2.24554 7:-0.21541 
-4096 1:0.360108 2:-1.66074 3:240.384 4:-0.582865 5:-10.0126 6:1.6966 7:0.0811144 
4096 1:2.25722 2:-6.833 3:-50.7721 4:0.619898 5:11.7312 6:-12.3679 7:-0.331112 
4096 1:2.99317 2:-4.82643 3:-288.156 4:0.634817 5:2.20215 6:-8.39403 7:-0.0743449 
-4096 1:-7.56999 2:-2.56018 3:-179.147 4:0.26341 5:-7.46783 6:-0.0772897 7:0.108212 
-4096 1:20.0111 2:-8.75751 3:47.3473 4:0.763945 5:5.65323 6:-3.85124 7:-0.375683 
4096 1:14.1722 2:-5.80813 3:-25.5058 4:0.585103 5:12.5776 6:-3.42068 7:-0.441738 
4096 1:3.48165 2:-2.85907 3:-298.564 4:0.844349 5:4.36125 6:2.11548 7:-0.350077 
-4096 1:12.2753 2:-5.53335 3:-44.0441 4:0.943143 5:4.89969 6:-4.3582 7:-0.300026 
-4096 1:3.51844 2:2.82632 3:-159.572 4:0.288291 5:-3.30782 6:-4.71793 7:0.556271 
-4096 1:17.537 2:-6.9328 3:31.4125 4:-0.0349289 5:5.48217 6:-17.9013 7:-0.252518 
4096 1:-3.58038 2:-9.02597 3:-152.097 4:0.0778516 5:14.1633 6:-25.1834 7:-0.391294 
-4096 1:12.0323 2:-0.0740048 3:-89.8088 4:0.568885 5:-8.78594 6:8.92685 7:-0.0949612 
-4096 1:-3.97782 2:1.11886 3:-153.21 4:0.183046 5:-16.133 6:14.5072 7:0.149105 
4096 1:8.78738 2:-3.82764 3:-225.025 4:0.930314 5:9.64917 6:5.9088 7:-0.179582 
-4096 1:-6.9871 2:3.13878 3:-134.339 4:0.228921 5:2.28784 6:12.2632 7:-0.166323 
-4096 1:4.67808 2:-2.85708 3:107.204 4:0.409944 5:6.33409 6:0.394794 7:-0.119852 
4096 1:6.48235 2:1.63277 3:-74.5242 4:1.04755 5:-5.20779 6:8.30256 7:-0.00873888 
4096 1:3.40255 2:4.76624 3:31.3399 4:0.428355 5:7.5565 6:7.23757 7:-0.268394 
-4096 1:1.20667 2:0.139988 3:187.812 4:0.567757 5:3.90757 6:14.2961 7:-0.128488 
-4096 1:23.1296 2:-6.20647 3:-31.5731 4:-0.310659 5:22.4154 6:-12.0116 7:-0.583751 
-4096 1:-6.90819 2:2.58491 3:56.8398 4:0.44913 5:1.01333 6:10.5619 7:0.287041 
-4096 1:-5.57956 2:2.73391 3:-204.16 4:0.541843 5:-5.45482 6:-9.80428 7:-0.0395089 
-4096 1:-1.30964 2:-11.3755 3:165.923 4:0.0382873 5:25.7539 6:-19.8886 7:-0.78427 
-4096 1:5.24247 2:-14.3983 3:357.724 4:-0.507384 5:22.5658 6:-25.5857 7:-0.715102 
-4096 1:-25.8952 2:10.5114 3:16.0297 4:0.180005 5:-14.0077 6:13.4523 7:0.426239 
4096 1:-10.9928 2:3.43017 3:-297.003 4:0.370369 5:-20.6709 6:14.8711 7:0.324979 
4096 1:-9.94777 2:15.3906 3:-283.888 4:0.652711 5:-11.825 6:35.4247 7:0.151848 
-4096 1:0.519014 2:-3.30827 3:102.945 4:-0.233258 5:-6.88436 6:-4.68773 7:0.102212 
-4096 1:14.9357 2:-2.37028 3:98.1982 4:0.0635935 5:-19.6354 6:6.39524 7:0.286792 
-4096 1:9.84052 2:-4.00059 3:-429.219 4:-0.253677 5:-2.00483 6:-4.84168 7:-0.272167 
4096 1:5.78148 2:-6.57034 3:-90.2715 4:0.502441 5:7.31723 6:-5.72261 7:-0.396765 
4096 1:6.64783 2:-7.1896 3:-117.289 4:0.575267 5:6.59805 6:-17.0513 7:-0.0681455 
4096 1:-7.1832 2:-5.81657 3:-280.956 4:0.351094 5:7.93334 6:-16.9313 7:-0.18292 
4096 1:-8.2598 2:-3.0903 3:-309.546 4:0.262545 5:6.5569 6:-6.38635 7:-0.396703 
4096 1:-1.23622 2:-1.13261 3:-157.362 4:0.514072 5:11.5697 6:4.85798 7:-0.443313 
4096 1:-9.35401 2:-2.80639 3:-275.434 4:0.892594 5:1.62041 6:-0.932597 7:-0.292991 
-4096 1:0.685006 2:-4.11047 3:-166.599 4:0.931409 5:2.1927 6:-6.71667 7:0.176837 
-4096 1:11.7595 2:-8.92347 3:-558.61 4:1.1049 5:-1.86513 6:-6.90981 7:-0.131668 
-4096 1:-6.50117 2:-5.73407 3:-133.073 4:0.349695 5:-10.3534 6:-14.1577 7:0.090872 
-4096 1:10.4315 2:-4.36753 3:325.375 4:0.310979 5:-0.209125 6:3.55476 7:-0.0178243 
-4096 1:20.4582 2:-7.55137 3:261.32 4:0.569147 5:-3.83908 6:-12.2826 7:-0.128462 
4096 1:20.0153 2:-0.400402 3:135.183 4:0.356179 5:-30.5826 6:9.28832 7:0.292932 
-4096 1:-14.0999 2:6.50477 3:-170.457 4:0.73562 5:4.96641 6:1.25284 7:-0.273694 
-4096 1:-17.1008 2:5.94329 3:-139.014 4:0.531863 5:8.83809 6:5.08577 7:-0.359492 
-4096 1:-13.4201 2:2.04768 3:-125.108 4:0.721348 5:6.85662 6:10.9245 7:-0.375825 
-4096 1:11.4711 2:-2.93211 3:372.607 4:0.189243 5:3.48173 6:3.48424 7:-0.323819 
-4096 1:10.0601 2:-6.97966 3:403.967 4:-0.532091 5:18.3214 6:-1.4726 7:-0.676067 
-4096 1:7.44986 2:-0.0745057 3:-70.5551 4:-0.0845167 5:16.0457 6:2.95102 7:-0.365691 
-4096 1:9.1303 2:-4.38459 3:180.719 4:-0.1502 5:8.85205 6:-6.32122 7:-0.144091 
-4096 1:-18.2474 2:1.95241 3:-227.965 4:0.544633 5:2.13136 6:2.87626 7:-0.145925 
-4096 1:2.38872 2:1.3933 3:-314.372 4:0.995868 5:1.60731 6:14.473 7:-0.076396 
-4096 1:1.48476 2:6.54235 3:240.824 4:0.484964 5:27.6484 6:12.2684 7:-0.72652 
-4096 1:3.35708 2:-4.32242 3:-166.318 4:-0.129625 5:-5.04304 6:0.948675 7:0.0963618 
-4096 1:16.4726 2:5.25785 3:315.167 4:0.730823 5:-1.66908 6:26.2082 7:-0.213716 
-4096 1:19.9054 2:5.89257 3:360.199 4:0.512399 5:-27.238 6:28.7594 7:0.323092 
-4096 1:9.33642 2:5.859 3:208.478 4:0.733036 5:2.28839 6:27.7085 7:-0.233365 
-4096 1:6.73709 2:7.707 3:339.761 4:0.363727 5:-11.0872 6:29.7404 7:-0.163495 
-4096 1:-11.912 2:-0.765014 3:-429.518 4:0.0740152 5:14.201 6:-7.94562 7:-0.182001 
4096 1:-5.22772 2:-5.10715 3:-486.798 4:1.17815 5:16.364 6:-0.536577 7:-0.343795 
-4096 1:-3.78003 2:0.192515 3:-60.6328 4:-0.184086 5:3.35768 6:0.297276 7:-0.0357202 
-4096 1:16.8144 2:-3.69337 3:194.36 4:0.516984 5:16.9849 6:6.21663 7:-0.608319 
-4096 1:-3.38104 2:11.242 3:-148.569 4:-0.220739 5:-9.62153 6:9.50896 7:0.393109 
-4096 1:-2.02835 2:-0.494373 3:236.602 4:-0.00133014 5:4.76616 6:7.14881 7:-0.110192 
-4096 1:8.804 2:-10.6911 3:290.33 4:0.657227 5:14.6809 6:-18.2608 7:-0.354092 
-4096 1:23.4732 2:-3.09282 3:136.865 4:1.21569 5:-5.49129 6:3.74796 7:0.0226821 
-4096 1:-18.9318 2:-3.7337 3:-185.442 4:-1.14535 5:-10.4473 6:-13.0501 7:0.0805747 
-4096 1:-2.07434 2:5.85025 3:81.67 4:-0.351209 5:-26.5836 6:-4.15756 7:0.642756 
-4096 1:23.1996 2:-2.06219 3:176.775 4:0.398611 5:34.2844 6:2.0923 7:-0.711229 
-4096 1:-0.374974 2:2.61882 3:-28.0965 4:0.299751 5:2.81754 6:15.3692 7:-0.212695 
-4096 1:-12.5892 2:2.14179 3:66.8199 4:0.500663 5:3.24387 6:7.32128 7:-0.283285 
-4096 1:-4.89974 2:0.937316 3:-78.1726 4:0.215287 5:8.33312 6:8.48062 7:-0.239011 
4096 1:1.68873 2:-1.28184 3:123.567 4:0.62756 5:-0.428065 6:10.3444 7:0.0522325 
-4096 1:-1.6381 2:-2.64813 3:-180.897 4:-0.35565 5:22.2789 6:-3.7275 7:-0.599582 
-4096 1:-7.28595 2:-7.32277 3:-187.173 4:0.00305775 5:29.1727 6:-13.0307 7:-0.70693 
4096 1:22.3399 2:-4.05736 3:173.118 4:1.04403 5:5.85147 6:2.14415 7:-0.210971 
-4096 1:20.6117 2:-5.84385 3:39.2392 4:-0.113613 5:25.2533 6:-6.48638 7:-0.622489 
4096 1:-5.38257 2:3.29758 3:-301.596 4:0.0488391 5:4.54603 6:13.3567 7:-0.340106 
4096 1:-3.76616 2:-13.1612 3:-1316.44 4:1.48935 5:15.2518 6:-28.2471 7:-0.0584837 
-4096 1:5.06032 2:-6.36594 3:-292.088 4:-0.756182 5:8.1799 6:-2.73773 7:-0.330584 
4096 1:-2.71738 2:14.6552 3:508.073 4:-0.760579 5:4.52355 6:20.1047 7:-0.397885 
4096 1:4.8366 2:-1.17095 3:-181.532 4:0.613637 5:-15.7101 6:-10.6094 7:0.159015 
-4096 1:13.4272 2:-10.2714 3:-29.0185 4:0.553852 5:27.6414 6:-18.6577 7:-0.74185 
-4096 1:16.8823 2:-10.4683 3:175.493 4:0.63311 5:38.6065 6:-13.0768 7:-0.875935 
-4096 1:-2.94973 2:11.9043 3:-57.8866 4:0.507803 5:-1.75278 6:27.2088 7:0.0220474 
4096 1:4.59949 2:0.445505 3:44.0183 4:-0.217449 5:1.63779 6:-1.44006 7:-0.263692 
4096 1:13.178 2:1.52696 3:297.064 4:0.343847 5:0.334217 6:3.44103 7:-0.225103 
-4096 1:12.8603 2:-4.40559 3:-78.772 4:0.998984 5:8.60794 6:3.60694 7:-0.248771 
-4096 1:-0.400965 2:-2.93891 3:430.357 4:-0.0207917 5:-8.92855 6:0.472154 7:0.0485721 
-4096 1:-6.41786 2:6.51453 3:-222.446 4:0.891684 5:0.468531 6:23.6173 7:0.0130623 
-4096 1:11.6166 2:9.3618 3:315.33 4:0.283188 5:-12.8343 6:26.2708 7:0.111942 
4096 1:16.4353 2:-0.879244 3:-151.484 4:0.955566 5:-0.632997 6:0.645059 7:-0.0970922 
-4096 1:-7.15707 2:-7.92548 3:-619.068 4:1.32993 5:9.54875 6:-16.7383 7:-0.0947137 
-4096 1:-2.25224 2:-6.49133 3:-525.993 4:0.332905 5:11.6493 6:-13.6506 7:-0.178936 
-4096 1:16.1925 2:-0.213221 3:368.848 4:0.0482312 5:8.92725 6:7.54009 7:-0.343739 
-4096 1:26.4698 2:-1.98107 3:292.935 4:0.551481 5:11.5373 6:7.03783 7:-0.452101 
4096 1:8.08383 2:-0.86462 3:-371.326 4:0.377252 5:20.504 6:-16.9976 7:-0.305851 
-4096 1:-13.5164 2:-4.75752 3:-210.476 4:0.340888 5:5.63867 6:-15.076 7:-0.231746 
4096 1:4.82052 2:-5.45252 3:301.063 4:-0.194997 5:9.38192 6:-11.1887 7:-0.125563 
-4096 1:-4.30615 2:2.61559 3:249.558 4:-0.390955 5:-17.2273 6:-1.22704 7:0.5229 
-4096 1:-8.72832 2:5.85888 3:107.565 4:0.0258128 5:14.9185 6:14.7026 7:-0.517099 
-4096 1:1.16835 2:-3.46809 3:183.733 4:-0.0924348 5:4.21728 6:4.73459 7:-0.0159256 
-4096 1:-0.430004 2:0.131736 3:-484.405 4:0.672209 5:8.27251 6:-1.07233 7:0.171833 
4096 1:4.90253 2:-7.44713 3:-134.485 4:0.843627 5:-2.68513 6:-18.535 7:-0.000994325 
-4096 1:13.1417 2:-1.77388 3:36.4866 4:0.868223 5:29.335 6:9.06268 7:-0.673871 
4096 1:-8.90796 2:-3.71701 3:23.1813 4:0.42785 5:2.92351 6:-7.10883 7:0.315262 
-4096 1:21.9988 2:0.968247 3:388.307 4:0.388906 5:-4.9708 6:12.8451 7:0.0534867 
-4096 1:7.95991 2:-2.98479 3:245.265 4:-0.121484 5:2.99733 6:-9.95253 7:-0.187043 
-4096 1:-8.87747 2:6.9239 3:-62.0715 4:-0.228665 5:-31.6391 6:0.551344 7:0.869579 
-4096 1:0.0945728 2:3.50752 3:236.111 4:0.408668 5:-26.5679 6:1.40575 7:0.440246 
4096 1:-11.0783 2:2.81179 3:-14.0623 4:0.209725 5:-3.51753 6:13.1557 7:0.280992 
4096 1:-11.2738 2:4.89817 3:-405.346 4:0.606426 5:9.97347 6:6.55822 7:-0.190468 
4096 1:-7.5813 2:2.95093 3:-434.057 4:1.1174 5:9.8539 6:-1.7117 7:0.0188595 
-4096 1:18.4621 2:0.904347 3:151.812 4:0.799611 5:12.9452 6:15.6556 7:-0.380442 
-4096 1:17.8437 2:-5.43671 3:35.6725 4:0.256001 5:-5.98525 6:-2.98534 7:0.135472 
-4096 1:0.932309 2:8.84465 3:-135.988 4:-0.275903 5:-21.054 6:11.0235 7:0.606626 
-4096 1:2.12566 2:7.33583 3:-175.873 4:0.350397 5:-20.0104 6:11.0742 7:0.621727 
-4096 1:6.35863 2:-4.84603 3:264.598 4:0.0484862 5:1.97079 6:-9.07299 7:-0.228534 
4096 1:15.5067 2:-1.53825 3:253.424 4:-0.59852 5:-12.9769 6:-6.65847 7:0.509807 
4096 1:-4.55689 2:-7.28957 3:-64.1517 4:-0.200517 5:-2.42029 6:-22.4496 7:0.178132 
4096 1:-7.43554 2:-2.93965 3:57.3128 4:-1.05741 5:9.58126 6:-5.18321 7:-0.0995683 
-4096 1:20.2995 2:3.82761 3:52.8903 4:-0.0152514 5:18.6059 6:30.1729 7:-0.542996 
-4096 1:13.8215 2:-0.662534 3:215.389 4:0.660187 5:9.01478 6:4.01424 7:-0.480222 
4096 1:15.1305 2:-4.12079 3:218.948 4:0.910144 5:22.878 6:1.13132 7:-0.706313 
-4096 1:-5.48494 2:8.08584 3:267.417 4:0.103364 5:-22.5406 6:9.20653 7:0.30292 
4096 1:4.91202 2:4.13713 3:-233.63 4:0.329748 5:3.12056 6:10.9892 7:-0.0984831 
4096 1:0.15037 2:1.74926 3:166.067 4:1.11073 5:4.1115 6:4.7576 7:-0.296159 
-4096 1:4.40261 2:3.26925 3:-222.234 4:0.771994 5:10.2114 6:14.9005 7:-0.253618 
-4096 1:5.04397 2:-2.63988 3:454.586 4:-0.0783622 5:20.8947 6:2.26108 7:-0.693661 
-4096 1:3.98658 2:5.09014 3:55.8158 4:0.848744 5:-3.4047 6:4.86479 7:0.112382 
-4096 1:5.19739 2:-6.19095 3:-144.171 4:0.783159 5:7.91093 6:-6.0458 7:-0.0688177 
-4096 1:-14.3196 2:0.331133 3:-282.293 4:0.509029 5:3.43252 6:-9.32535 7:0.161385 
4096 1:-16.5982 2:4.29212 3:-149.495 4:-0.481408 5:-14.5394 6:6.64251 7:0.31956 
-4096 1:-5.78187 2:4.09191 3:-306.103 4:0.490521 5:9.03252 6:3.4606 7:-0.352223 
-4096 1:3.32281 2:-0.138213 3:-342.444 4:-0.128359 5:-5.86948 6:1.20686 7:0.269267 
-4096 1:-5.7202 2:-4.23827 3:-299.376 4:-0.0377027 5:3.37452 6:-11.0571 7:0.0106736 
4096 1:20.0448 2:-5.22387 3:-95.1215 4:1.15513 5:18.3399 6:-4.95098 7:-0.446043 
3044.278409072147 1:15.5451 2:4.67085 3:306.599 4:0.0169247 5:-12.3494 6:19.1066 7:0.0788261 
-4096 1:-3.46878 2:-7.18046 3:-39.8326 4:-0.126456 5:16.6752 6:-16.4193 7:-0.531925 
-4096 1:6.5963 2:-3.44838 3:227.098 4:-0.192528 5:1.87752 6:-4.04239 7:-0.227607 
-4096 1:0.992251 2:1.63008 3:-34.8664 4:0.506961 5:27.0232 6:9.75405 7:-0.625586 
4096 1:10.1194 2:-7.20629 3:130.016 4:-0.0229031 5:10.108 6:-17.7142 7:-0.254412 
-4096 1:11.8994 2:3.32915 3:398.057 4:0.389799 5:4.78294 6:16.2902 7:-0.151937 
-4096 1:17.5479 2:-8.36276 3:-60.769 4:0.707319 5:9.56116 6:-15.0465 7:-0.293306 
-4096 1:13.2583 2:-6.09307 3:-307.008 4:0.680752 5:1.07189 6:-10.6965 7:0.317353 
-4096 1:18.5779 2:1.8718 3:251.995 4:0.676825 5:23.5575 6:7.57905 7:-0.634488 
-4096 1:9.2002 2:1.5637 3:321.712 4:0.437725 5:11.4123 6:15.9147 7:-0.288088 
-4096 1:7.62432 2:15.7913 3:202.722 4:0.0898119 5:-0.516907 6:35.5762 7:0.0580001 
-4096 1:-2.3725 2:4.5231 3:201.922 4:0.123186 5:13.1643 6:13.7623 7:-0.445355 
-4096 1:-1.38168 2:-3.42667 3:256.717 4:0.369317 5:-4.78107 6:-5.30574 7:-0.0627039 
4096 1:-13.6584 2:-1.67597 3:-371.32 4:0.646908 5:7.24545 6:-4.78682 7:-0.225155 
-4096 1:23.1433 2:-2.02632 3:386.192 4:0.13868 5:-5.60731 6:7.11784 7:-0.0233503 
-4096 1:1.0117 2:4.26887 3:110.58 4:0.291536 5:2.40793 6:13.2499 7:-0.251882 
-4096 1:-7.50094 2:9.52522 3:70.1638 4:0.524242 5:-12.9466 6:21.3671 7:0.304684 
-4096 1:-14.8242 2:13.2297 3:-186.664 4:0.857368 5:-15.6407 6:22.6343 7:0.413143 
4096 1:14.9112 2:1.02201 3:135.072 4:0.179674 5:4.0952 6:11.1128 7:-0.244731 
-4096 1:-1.30304 2:3.51571 3:-251.52 4:1.27311 5:5.67741 6:3.91445 7:0.0457961 
-4096 1:0.198185 2:-2.03216 3:-226.073 4:0.395804 5:14.9491 6:2.27898 7:-0.313218 
-4096 1:-19.5265 2:2.81794 3:-332.753 4:-0.423877 5:-25.898 6:1.21516 7:0.729549 
4096 1:-12.8625 2:10.653 3:-123.494 4:0.518191 5:-3.6419 6:28.744 7:-0.135425 
-4096 1:0.497521 2:-2.64101 3:-110.082 4:0.262115 5:-12.7803 6:2.35928 7:0.0487119 
-4096 1:5.90842 2:-9.26503 3:428.612 4:-1.01661 5:3.17094 6:-26.7628 7:0.0100661 
4096 1:-12.0714 2:9.41247 3:-148.432 4:0.177863 5:9.3489 6:22.2099 7:-0.385828 
-4096 1:9.59803 2:-0.614217 3:-99.8261 4:0.487906 5:4.65291 6:7.3954 7:-0.32076 
-4096 1:3.21474 2:-4.65032 3:53.9612 4:-0.201653 5:12.2473 6:-1.21912 7:-0.406827 
-4096 1:0.758744 2:-1.72533 3:-81.8415 4:0.688105 5:-3.94761 6:-4.66174 7:0.237206 
-4096 1:15.7648 2:2.45542 3:190.504 4:-0.317652 5:-14.6011 6:14.2774 7:0.0537923 
-4096 1:-0.266942 2:-14.9073 3:-229.371 4:0.60547 5:7.76592 6:-32.7751 7:-0.10442 
-4096 1:10.2341 2:-9.30592 3:-233.656 4:0.735779 5:2.00288 6:-8.94453 7:-0.362463 
4096 1:16.0792 2:-3.89251 3:235.797 4:0.583481 5:-11.2718 6:3.20969 7:0.076852 
-4096 1:25.1746 2:2.16184 3:43.5943 4:1.06484 5:-4.24968 6:26.7235 7:-0.063633 
4096 1:6.45128 2:0.049683 3:168.707 4:0.262832 5:0.156042 6:10.1638 7:-0.218562 
-4096 1:28.9397 2:7.63808 3:616.023 4:0.121848 5:11.7023 6:20.8583 7:-0.46722 
-4096 1:-0.0855917 2:-1.98262 3:-194.477 4:0.637078 5:5.47801 6:-0.0543107 7:-0.233787 
4096 1:-14.3531 2:9.81067 3:-148.037 4:0.191 5:2.07521 6:17.6337 7:-0.136397 
-4096 1:1.30019 2:-2.84556 3:-446.449 4:1.13551 5:-5.44612 6:-0.881569 7:0.19124 
4096 1:-0.317598 2:-4.73883 3:-97.99 4:0.660106 5:14.6954 6:0.623155 7:-0.562842 
-4096 1:-0.378949 2:1.50985 3:-162.129 4:0.694725 5:-6.34996 6:14.5456 7:0.366502 
-4096 1:1.06465 2:-1.65387 3:-287.681 4:0.414652 5:5.36201 6:1.62964 7:-0.08758 
-4096 1:16.3094 2:-4.13214 3:206.337 4:0.830484 5:-8.02101 6:1.4341 7:0.017026 
-4096 1:6.26336 2:-2.44734 3:-42.1183 4:0.180737 5:-6.10693 6:5.27363 7:0.010432 
-4096 1:9.62674 2:-3.30524 3:-186.183 4:0.439766 5:6.63299 6:-9.26568 7:-0.00675274 
4096 1:-3.98179 2:6.523 3:-200.367 4:0.494274 5:9.20193 6:23.9401 7:-0.530173 
4096 1:22.3703 2:-4.99852 3:194.323 4:0.173124 5:-15.9086 6:1.02544 7:0.326982 
-4096 1:29.517 2:-4.37153 3:236.054 4:0.411261 5:-15.7592 6:6.57251 7:0.0369994 
-4096 1:3.48022 2:-1.70387 3:-50.0885 4:0.3058 5:-26.5381 6:-3.85257 7:0.651493 
-4096 1:15.4505 2:-4.82789 3:19.2652 4:-0.117959 5:-13.3445 6:1.97297 7:0.14283 
-4096 1:17.9472 2:-3.68256 3:184.343 4:-0.0239231 5:-15.9526 6:3.41766 7:0.115481 
3796.090855052839 1:-1.18461 2:-11.8171 3:-2011.26 4:2.46163 5:11.1949 6:-11.1851 7:0.586158 
-4096 1:1.08936 2:-2.92015 3:-213.673 4:0.489828 5:14.9435 6:5.51184 7:-0.406537 
-4096 1:6.68292 2:-2.55727 3:294.149 4:0.439116 5:15.1304 6:12.2635 7:-0.549814 
-4096 1:13.3006 2:-6.9971 3:137.46 4:0.14998 5:0.518444 6:0.156244 7:-0.282948 
-4096 1:-2.49604 2:-2.70933 3:66.3876 4:-0.059513 5:-10.5372 6:0.619342 7:0.12782 
-4096 1:2.69416 2:-2.12728 3:112.876 4:-0.24071 5:-9.51899 6:7.45223 7:0.0549366 
-4096 1:21.494 2:2.19614 3:234.538 4:0.140904 5:-17.31 6:7.01573 7:0.457014 
4096 1:6.14346 2:3.63047 3:135.937 4:0.00360643 5:5.09506 6:21.5798 7:-0.16799 
-4096 1:-4.89454 2:-1.0057 3:-161.132 4:0.420409 5:-5.31573 6:-11.8061 7:0.143283 
-4096 1:-9.27842 2:-11.5959 3:-497.264 4:1.02897 5:10.5356 6:-34.2072 7:-0.0485793 
-4096 1:10.7555 2:-4.04868 3:191.723 4:-0.323348 5:8.15927 6:4.6037 7:-0.235804 
4096 1:-9.87533 2:1.78031 3:-432.074 4:0.573433 5:20.2558 6:-3.16991 7:-0.272428 
4096 1:-3.73352 2:-5.29054 3:-57.9143 4:0.492052 5:8.48738 6:-0.696486 7:-0.122799 
4096 1:0.567424 2:-1.47361 3:-60.2425 4:0.554373 5:-4.96606 6:5.53025 7:-0.231882 
4096 1:3.46922 2:-11.1088 3:-72.4235 4:0.436037 5:9.70619 6:-15.457 7:-0.303025 
4096 1:-6.61906 2:5.51649 3:109.885 4:-0.0862132 5:-16.9072 6:7.27027 7:0.513699 
4096 1:-5.75648 2:-0.729716 3:-143.695 4:0.22841 5:12.5642 6:4.39011 7:-0.181078 
-4096 1:5.67555 2:4.55988 3:-116.261 4:0.432419 5:-6.98677 6:13.4232 7:0.230413 
4096 1:4.93717 2:0.153525 3:-255.194 4:0.845454 5:-19.7913 6:2.59946 7:0.487492 
4096 1:23.4593 2:-1.45767 3:81.3155 4:0.84027 5:-39.2166 6:8.42867 7:0.509207 
4096 1:-0.0537938 2:-7.00615 3:-333.484 4:0.321534 5:5.63587 6:-14.4576 7:0.112838 
4096 1:11.3416 2:-7.33525 3:-181.32 4:0.0028133 5:24.1292 6:-13.5226 7:-0.697382 
4096 1:2.94494 2:3.5561 3:-202.385 4:0.72764 5:-3.29075 6:16.3016 7:0.160779 
4096 1:0.952959 2:-7.68782 3:-260.716 4:0.640038 5:10.8557 6:-10.4205 7:-0.345854 
4096 1:17.1308 2:-6.12059 3:124.339 4:1.26746 5:1.25994 6:5.0567 7:-0.181224 
-4096 1:-12.3197 2:5.45154 3:104.224 4:0.326814 5:3.57463 6:13.9116 7:-0.0920069 
-4096 1:15.4688 2:-7.58301 3:608.104 4:-0.138094 5:-6.77466 6:-3.90294 7:-0.0349494 
-4096 1:-1.91536 2:3.40863 3:-101.432 4:0.771408 5:-2.99139 6:11.3246 7:0.0672685 
-4096 1:-0.963256 2:-3.61349 3:206.997 4:0.206908 5:10.8992 6:-5.74839 7:-0.30206 
-4096 1:-8.72629 2:-2.13835 3:-155.163 4:0.468641 5:14.3911 6:-0.203993 7:-0.274416 
4096 1:12.8087 2:1.39622 3:188.828 4:-0.47302 5:-11.1311 6:5.3233 7:0.19193 
-4096 1:18.114 2:3.8227 3:428.966 4:-0.474437 5:-10.7413 6:16.4263 7:-0.0314175 
4096 1:-11.8399 2:-7.65711 3:-319.424 4:0.683448 5:5.20689 6:-17.8562 7:-0.109288 
4096 1:2.78003 2:3.17705 3:147.114 4:0.848781 5:4.24211 6:9.82863 7:-0.224608 
4096 1:7.53133 2:1.59954 3:98.0781 4:0.979238 5:35.3754 6:16.6341 7:-0.85384 
-4096 1:-11.2617 2:10.8624 3:-263.183 4:0.182709 5:-12.6554 6:12.3375 7:0.503721 
-4096 1:6.67041 2:3.13714 3:-70.3241 4:0.375483 5:1.92644 6:8.89938 7:-0.0810853 
-4096 1:4.95933 2:-2.51031 3:-98.9676 4:0.502166 5:19.1334 6:3.03687 7:-0.582038 
-4096 1:16.8969 2:0.190315 3:257.876 4:0.485882 5:6.29411 6:8.57579 7:-0.361562 
4096 1:-5.2713 2:-4.57993 3:-96.9386 4:-0.0980767 5:14.5744 6:-9.86708 7:-0.308031 
-4096 1:12.6601 2:1.15015 3:551.323 4:-0.29091 5:-5.47248 6:19.0498 7:-0.222507 
-4096 1:-14.4304 2:8.85143 3:-194.657 4:0.220214 5:-6.0869 6:8.62491 7:-0.05213 
-4096 1:3.70917 2:-7.19724 3:-231.588 4:0.47662 5:14.4539 6:-10.4316 7:-0.43501 
-4096 1:-13.9285 2:2.22023 3:-404.64 4:0.559854 5:1.39638 6:0.0499196 7:-0.0822464 
4096 1:-14.7755 2:6.2751 3:-179.37 4:0.832912 5:3.0863 6:18.9351 7:-0.201542 
4096 1:-11.0666 2:6.31511 3:-112.991 4:0.405761 5:-7.22791 6:24.0673 7:0.0745283 
4096 1:-15.4994 2:7.71793 3:55.2196 4:0.613814 5:2.25768 6:18.7235 7:-0.226527 
4096 1:-10.9947 2:-2.28398 3:-541.908 4:0.194407 5:3.09421 6:-9.71587 7:0.0331025 
4096 1:-4.38106 2:0.194993 3:-429.571 4:0.0410662 5:-5.55226 6:-19.3515 7:0.332937 
-4096 1:-5.44263 2:2.22474 3:-259.624 4:0.668647 5:-0.562165 6:2.53277 7:0.0324206 
-4096 1:23.4314 2:-5.48704 3:351.564 4:-0.214384 5:13.8083 6:4.36467 7:-0.47916 
-4096 1:4.60705 2:1.80633 3:-367.686 4:1.07023 5:-10.5495 6:7.40018 7:0.189673 
4096 1:2.07219 2:-6.46448 3:-77.7933 4:0.997114 5:1.45544 6:-1.79843 7:-0.058498 
-4096 1:1.6154 2:-7.94189 3:-218.981 4:0.475841 5:12.988 6:-4.88288 7:-0.314463 
4096 1:5.17351 2:-2.13083 3:-237.289 4:0.700801 5:2.16985 6:0.177349 7:-0.0373575 
-4096 1:2.62463 2:-7.13671 3:-9.77878 4:0.183746 5:5.81998 6:-16.3934 7:-0.160437 
-4096 1:8.05825 2:-9.73183 3:2.51433 4:1.08142 5:4.25024 6:-12.3818 7:-0.142413 
-4096 1:0.998929 2:-5.83687 3:-74.5735 4:0.0926121 5:12.1097 6:-11.8485 7:-0.182583 
-4096 1:13.4548 2:-10.6565 3:-117.568 4:0.681388 5:9.68493 6:-19.0809 7:-0.213255 
-4096 1:5.71087 2:-6.8368 3:-187.457 4:-0.266995 5:23.5623 6:-9.62899 7:-0.623068 
-4096 1:8.27661 2:-3.06073 3:190.951 4:0.513058 5:2.57084 6:-2.39207 7:0.112604 
-4096 1:3.67711 2:-11.809 3:-140.421 4:0.665374 5:-5.97623 6:-18.3171 7:0.106007 
-4096 1:-9.70249 2:12.403 3:-129.811 4:0.238997 5:-7.07231 6:14.1506 7:0.311271 
-4096 1:-8.06338 2:3.87344 3:-179.078 4:0.86638 5:10.9342 6:15.8302 7:-0.242477 
-4096 1:-8.05996 2:-5.45121 3:-80.4954 4:0.499703 5:11.6752 6:-1.93337 7:-0.214121 
4096 1:-6.5569 2:-9.41087 3:-164.429 4:0.258124 5:7.86208 6:-15.9061 7:-0.264135 
-4096 1:-7.12935 2:-5.41319 3:9.46379 4:0.242964 5:6.12512 6:-4.7467 7:-0.180778 
4096 1:1.56015 2:-3.73356 3:-130.423 4:0.211792 5:-0.457899 6:-8.16419 7:-0.0710227 
-4096 1:0.680034 2:4.29679 3:-173.726 4:0.993113 5:-0.327173 6:12.0542 7:0.279482 
-4096 1:7.15393 2:-8.00905 3:20.2644 4:0.323386 5:-10.2054 6:-8.52768 7:-0.0172182 
-4096 1:8.48215 2:-2.92076 3:-36.1956 4:0.342777 5:-10.0969 6:4.86388 7:0.090988 
4096 1:9.83625 2:-0.810593 3:-238.893 4:-0.200229 5:-10.0157 6:15.4285 7:0.152738 
4096 1:-16.7159 2:-1.61783 3:-115.364 4:0.419275 5:-0.15651 6:-7.26476 7:0.251203 
-4096 1:-15.5892 2:5.64844 3:-63.8202 4:-1.00524 5:16.8735 6:2.46965 7:-0.607059 
-4096 1:-6.90507 2:2.07297 3:59.1716 4:-0.182393 5:10.7119 6:17.0089 7:-0.501877 
4096 1:-7.36137 2:9.63812 3:-22.4275 4:0.567896 5:-1.1984 6:29.0664 7:-0.0454374 
-4096 1:-3.31234 2:6.3534 3:-214.584 4:0.102965 5:-12.0842 6:17.479 7:0.246629 
-4096 1:-0.549839 2:3.34111 3:-121.677 4:0.309522 5:-6.65227 6:14.8032 7:0.0354512 
4096 1:4.58984 2:9.0975 3:499.279 4:-0.0659687 5:-6.4358 6:30.4546 7:-0.220304 
-4096 1:-27.2282 2:-4.81944 3:-1494.66 4:2.41157 5:2.1458 6:-22.3878 7:0.392293 
-4096 1:-0.997432 2:-8.10995 3:-124.184 4:0.263317 5:9.06521 6:-7.50643 7:-0.0672091 
-4096 1:4.11339 2:-2.35633 3:-202.158 4:0.190565 5:1.21104 6:-14.7775 7:-0.127657 
-4096 1:-6.62263 2:-2.03574 3:-173.713 4:0.829685 5:15.1014 6:-2.85499 7:-0.595088 
-4096 1:2.7748 2:-5.73263 3:-204.188 4:0.325908 5:-7.77144 6:0.95911 7:0.253516 
-4096 1:9.09929 2:-0.443617 3:-130.785 4:0.770065 5:9.07233 6:16.3539 7:-0.261138 
-4096 1:-2.36378 2:11.8778 3:-396.011 4:0.336001 5:7.34595 6:14.5893 7:-0.138657 
4096 1:16.2667 2:-1.89972 3:73.954 4:0.9312 5:10.0621 6:5.58812 7:-0.429 
-4096 1:-11.8527 2:-0.77651 3:-71.188 4:0.465592 5:19.24 6:7.72325 7:-0.608055 
-4096 1:23.1033 2:-3.37476 3:336.075 4:0.163372 5:-15.0882 6:6.94498 7:0.00518434 
-4096 1:-3.67771 2:-0.146743 3:115.166 4:-0.274727 5:-19.068 6:2.63574 7:0.117556 
4096 1:-8.05186 2:11.6075 3:-351.724 4:0.412499 5:6.61458 6:22.0077 7:-0.293269 
-4096 1:-1.34589 2:-6.28526 3:-409.993 4:1.31684 5:16.4265 6:-6.58309 7:-0.477664 
4096 1:5.05156 2:-7.16857 3:174.997 4:0.298656 5:6.61557 6:-9.98966 7:-0.202531 
4096 1:-7.85137 2:-1.48929 3:-281.646 4:0.478787 5:-4.49528 6:-4.97254 7:-0.00469662 
-4096 1:16.1634 2:-2.30346 3:-54.184 4:0.87911 5:-18.6318 6:5.63148 7:0.238732 
-1931.657722840348 1:15.2039 2:-4.28357 3:-1106.52 4:2.41033 5:16.4431 6:3.62814 7:0.0562197 
-4096 1:7.01861 2:-3.42069 3:61.8444 4:0.504986 5:3.99509 6:7.775 7:-0.0891057 
-4096 1:3.80769 2:-7.07418 3:-245.878 4:0.335589 5:-6.0515 6:-11.0009 7:-0.0187385 
-4096 1:19.7474 2:-3.91804 3:608.142 4:-0.972097 5:0.0577278 6:-0.48386 7:-0.1667 
-4096 1:7.09546 2:-9.43479 3:-19.2734 4:0.562655 5:4.82327 6:-9.67351 7:0.198447 
4096 1:-0.176872 2:-12.6159 3:-166.183 4:0.387912 5:5.77914 6:-21.887 7:-0.139799 
4096 1:6.18786 2:-9.89066 3:-572.356 4:0.222681 5:18.3308 6:-30.2008 7:-0.208637 
4096 1:13.0252 2:-9.4903 3:-174.461 4:-0.0158098 5:15.0041 6:-6.48221 7:-0.440584 
-4096 1:1.74404 2:-1.27295 3:71.6716 4:0.00240005 5:19.7993 6:1.64014 7:-0.502969 
4096 1:11.9668 2:-9.36292 3:-184.386 4:0.703431 5:3.8168 6:-9.23725 7:-0.124751 
4096 1:14.1555 2:-10.3618 3:-215.068 4:0.118091 5:6.07955 6:-19.6872 7:-0.0430598 
-4096 1:2.83654 2:3.76484 3:507.675 4:-0.00390665 5:6.92727 6:21.5935 7:-0.390121 
-4096 1:-5.62067 2:2.1953 3:-90.3681 4:0.133867 5:-3.8649 6:9.15082 7:0.393274 
4096 1:4.84641 2:-4.3453 3:-485.666 4:1.08671 5:16.6703 6:-1.7817 7:-0.336294 
4096 1:1.53206 2:-11.168 3:-451.039 4:0.393235 5:9.80624 6:-24.646 7:-0.13955 
4096 1:6.29819 2:-8.66231 3:-347.163 4:1.07688 5:11.5672 6:-8.92619 7:-0.297148 
4096 1:-7.41909 2:-3.56 3:108.291 4:-0.141763 5:7.48592 6:-2.28434 7:-0.336835 
4096 1:6.37213 2:2.45376 3:67.0259 4:0.189466 5:3.69207 6:6.56197 7:0.044179 
4096 1:-9.42833 2:7.80387 3:-149.035 4:-0.0229621 5:-15.1865 6:23.3673 7:0.362671 
4096 1:-17.8831 2:7.83262 3:-466.72 4:0.0981732 5:-18.4638 6:5.63047 7:0.601569 
4096 1:17.1663 2:-2.06133 3:-40.1696 4:0.125184 5:-8.8642 6:6.42123 7:0.231721 
-4096 1:3.84876 2:-4.52609 3:-297.588 4:0.786443 5:3.5979 6:9.96768 7:-0.267703 
-4096 1:25.9906 2:-4.2326 3:672.009 4:0.432349 5:-2.45713 6:8.85861 7:-0.338738 
-4096 1:0.418065 2:-2.88964 3:71.3253 4:0.707459 5:14.517 6:5.84416 7:-0.429038 
-4096 1:2.5028 2:0.765472 3:120.197 4:0.48827 5:3.10128 6:12.0845 7:-0.237189 
-4096 1:11.6172 2:-3.61041 3:-214.143 4:1.32922 5:16.4756 6:8.34288 7:-0.319498 
-4096 1:-3.10337 2:-0.68548 3:-298.484 4:1.26941 5:12.7452 6:8.75474 7:-0.401613 
4096 1:4.2357 2:1.57871 3:-76.5614 4:0.070144 5:-12.3903 6:3.35709 7:-0.0778589 
4096 1:-6.96789 2:8.26412 3:-24.6313 4:0.131142 5:-9.00026 6:20.0949 7:-0.0201931 
-4096 1:-5.87456 2:3.55655 3:87.1331 4:0.436099 5:-6.9114 6:4.80106 7:0.0172405 
4096 1:21.9932 2:-2.78875 3:627.999 4:-0.0206673 5:16.9416 6:13.7736 7:-0.621526 
4096 1:4.22945 2:-1.51131 3:303.907 4:-0.0439911 5:-9.38001 6:8.86497 7:-0.243978 
-4096 1:10.9427 2:-5.92809 3:237.715 4:0.113913 5:10.4017 6:3.06757 7:-0.415026 
-4096 1:-1.59682 2:-2.7424 3:-1.41425 4:0.216565 5:1.82629 6:2.69496 7:0.435984 
-4096 1:16.8156 2:-2.28033 3:70.7725 4:-0.0741209 5:16.9748 6:-7.25589 7:-0.392337 
4096 1:-3.92317 2:-5.39045 3:-51.0319 4:0.381619 5:-6.08969 6:-5.00763 7:0.117677 
-4096 1:-7.65096 2:1.251 3:56.182 4:0.686362 5:7.54291 6:9.30655 7:-0.154973 
-4096 1:12.34 2:0.120731 3:-36.2239 4:0.603466 5:-9.82536 6:10.1133 7:0.150781 
-4096 1:-14.8175 2:8.80935 3:-19.4825 4:-0.331893 5:-9.07281 6:8.65811 7:0.52756 
4096 1:3.43449 2:-10.4835 3:-310.96 4:0.323263 5:9.58187 6:-18.0597 7:-0.211892 
4096 1:-0.428151 2:-4.74578 3:-548.52 4:1.3858 5:17.6027 6:0.620055 7:-0.414878 
4096 1:4.93208 2:-4.65808 3:-341 4:0.571477 5:7.52013 6:-1.6713 7:-0.166763 
-4096 1:10.8052 2:-8.50985 3:-43.7395 4:-0.0983016 5:5.60549 6:-15.1318 7:-0.0577461 
-4096 1:8.05063 2:-7.65688 3:-237.135 4:1.2215 5:11.9107 6:-13.4187 7:-0.0560891 
-4096 1:-1.22895 2:-11.7785 3:-1327.86 4:1.70789 5:6.76194 6:-28.6127 7:0.312318 
-4096 1:17.3857 2:-6.7052 3:321.919 4:0.291599 5:14.5311 6:-4.19704 7:-0.478279 
-4096 1:32.7737 2:-4.52329 3:662.58 4:-0.0107098 5:12.5008 6:1.35413 7:-0.399933 
4096 1:3.13959 2:-0.813148 3:260.483 4:0.270459 5:11.718 6:8.41517 7:-0.521419 
-4096 1:-4.97905 2:4.65273 3:319.727 4:0.302258 5:8.53643 6:14.4547 7:-0.43062 
4096 1:6.87106 2:-4.69101 3:-22.8944 4:0.130189 5:8.56641 6:-0.432852 7:-0.223051 
-4096 1:-9.33819 2:-2.26407 3:-307.53 4:-0.627541 5:5.91658 6:-16.2569 7:-0.00804147 
4096 1:-14.0114 2:10.0718 3:-282.425 4:0.368965 5:0.943494 6:21.6102 7:-0.238462 
-4096 1:29.8555 2:-1.24205 3:811.364 4:0.0151111 5:2.0821 6:13.8551 7:-0.222539 
-4096 1:7.61279 2:-2.98844 3:433.724 4:0.373773 5:-4.02497 6:9.18315 7:-0.119901 
4096 1:-8.77686 2:-0.821766 3:-439.904 4:0.448487 5:9.05088 6:-5.25109 7:0.0372584 
4096 1:2.03113 2:0.266431 3:-222.144 4:0.200307 5:13.1871 6:6.14641 7:-0.218488 
-4096 1:19.8602 2:-5.38205 3:516.754 4:0.186407 5:2.84355 6:5.16003 7:-0.135591 
4096 1:23.8955 2:-6.36923 3:263.012 4:0.152304 5:26.3698 6:0.336959 7:-0.763413 
-4096 1:21.3945 2:-3.19293 3:11.2319 4:0.917749 5:-4.54677 6:9.96799 7:0.0118787 
4096 1:-16.0663 2:5.36865 3:-345.036 4:0.975263 5:8.8424 6:2.56288 7:-0.0197743 
-4096 1:-0.997445 2:-1.45897 3:108.201 4:0.21102 5:0.652402 6:3.68308 7:0.488678 
-4096 1:-7.21524 2:-6.6886 3:-402.984 4:0.207986 5:12.4402 6:-25.472 7:-0.0668437 
-4096 1:7.56769 2:-6.38142 3:1.02081 4:0.366692 5:15.0583 6:-0.155442 7:-0.563996 
4096 1:10.9104 2:-4.95582 3:-127.007 4:0.905136 5:18.4575 6:-5.04668 7:-0.432838 
4096 1:-10.2361 2:0.938042 3:-436.864 4:1.00108 5:-9.7104 6:-3.12643 7:0.262771 
-4096 1:-11.6202 2:7.35482 3:-69.2705 4:0.235044 5:-7.96721 6:11.9887 7:0.435707 
-4096 1:-9.02999 2:9.2116 3:64.302 4:-0.150156 5:-4.99474 6:15.7962 7:0.195031 
-4096 1:-16.5563 2:17.0927 3:46.1264 4:-0.0121523 5:-6.88045 6:23.4666 7:0.348883 
-4096 1:16.0101 2:-3.6325 3:55.0098 4:0.0538202 5:16.1153 6:12.2382 7:-0.49473 
-4096 1:-4.34502 2:-0.194175 3:122.137 4:-0.0413046 5:0.913009 6:8.87296 7:-0.152511 
4096 1:-3.741 2:-2.02805 3:125.285 4:0.343869 5:5.15117 6:1.37213 7:-0.333746 
-4096 1:9.13047 2:-2.04444 3:186.36 4:0.788864 5:13.8656 6:-3.47091 7:-0.516795 
4096 1:-10.2634 2:-6.02882 3:-195.64 4:0.359286 5:7.13487 6:-10.4341 7:-0.427939 
4096 1:1.09273 2:-1.53114 3:22.6812 4:0.328258 5:20.4585 6:2.86476 7:-0.630535 
-4096 1:-5.08912 2:0.849705 3:-54.8239 4:0.430283 5:-10.6373 6:14.1919 7:0.0288721 
4096 1:4.33564 2:-6.89379 3:-190.598 4:0.638197 5:0.303452 6:-17.8107 7:0.181043 
4096 1:-2.79529 2:-2.38729 3:27.3279 4:-0.0479426 5:8.5163 6:1.7824 7:-0.0708108 
4096 1:-5.72221 2:1.23816 3:-207.811 4:-0.437114 5:-5.40774 6:0.245099 7:0.242444 
-4096 1:-12.9815 2:2.93525 3:-296.98 4:-0.730828 5:-10.2244 6:3.75562 7:0.293117 
4096 1:1.5508 2:-9.24066 3:-456.904 4:0.796905 5:9.57278 6:-19.5756 7:-0.228762 
-4096 1:0.638946 2:-1.35173 3:-728.819 4:0.617075 5:3.39223 6:-3.80476 7:-0.0114006 
-4096 1:9.19314 2:-9.08783 3:231.668 4:0.508706 5:0.299221 6:-10.957 7:-0.293459 
4096 1:3.59947 2:-2.74761 3:-40.8236 4:0.202035 5:9.02682 6:-6.92185 7:-0.250842 
-4096 1:-2.8659 2:-1.18864 3:-102.961 4:-0.0414364 5:10.0036 6:-4.82466 7:-0.095999 
-4096 1:-5.72935 2:2.44245 3:340.012 4:-0.166386 5:3.10357 6:14.2803 7:-0.200053 
-4096 1:18.7813 2:-4.21832 3:84.9451 4:0.5627 5:-15.0593 6:3.9334 7:0.148544 
-4096 1:-10.4029 2:0.953201 3:-32.2508 4:-0.342869 5:1.42173 6:3.87221 7:0.135939 
-3061.849727204129 1:8.6341 2:-6.72412 3:-345.369 4:0.30474 5:-14.001 6:-13.9246 7:0.926622 
-4096 1:11.7577 2:-6.50537 3:518.327 4:-0.327956 5:19.9189 6:-0.849893 7:-0.62007 
-4096 1:-11.7946 2:-1.07553 3:-34.0166 4:0.158086 5:3.97905 6:-10.3802 7:0.0678892 
-4096 1:18.1194 2:-3.10861 3:378.931 4:0.358428 5:-2.9915 6:9.75113 7:-0.114643 
4096 1:0.0523822 2:-1.00947 3:-55.5786 4:0.432856 5:1.90116 6:-4.14633 7:-0.0744619 
-4096 1:7.74622 2:-5.468 3:173.885 4:-0.0923014 5:0.297516 6:-8.58133 7:0.00610306 
4096 1:15.7022 2:-6.34092 3:-230.272 4:0.469553 5:-1.04603 6:-6.09339 7:0.119188 
4096 1:8.78659 2:-8.52378 3:-79.8686 4:-0.236686 5:0.0963601 6:-7.20229 7:-0.289449 
-4096 1:-13.5413 2:-8.68404 3:-168.888 4:0.182421 5:10.7134 6:-20.6466 7:0.0269799 
4096 1:2.09752 2:-7.50096 3:-202.23 4:0.443319 5:-1.74881 6:-2.72461 7:0.0121278 
4096 1:-8.69044 2:-5.71764 3:-290.46 4:0.396772 5:-4.90477 6:-10.4852 7:0.0810349 
4096 1:-3.1237 2:-9.61524 3:-171.236 4:0.528206 5:16.3937 6:-17.3512 7:-0.288756 
-4096 1:13.0997 2:-8.41886 3:370.319 4:0.345603 5:5.2811 6:-5.65651 7:-0.23665 
-4096 1:16.3767 2:-7.26038 3:366.887 4:0.365035 5:2.53027 6:-7.69606 7:-0.114659 
-4096 1:3.43416 2:-1.49088 3:-38.0479 4:0.530127 5:5.3637 6:3.85718 7:0.0802527 
4096 1:16.5193 2:-6.71307 3:-224.201 4:1.05072 5:25.5933 6:-5.06413 7:-0.626631 
-4096 1:3.96377 2:-4.73723 3:-269.035 4:0.95215 5:11.1859 6:-2.07609 7:-0.453742 
4096 1:16.5463 2:0.173138 3:81.9438 4:0.696976 5:22.0646 6:8.28429 7:-0.3496 
4096 1:2.41019 2:2.85663 3:-104.447 4:-0.339976 5:-18.8348 6:12.6337 7:0.546139 
-4096 1:-16.8452 2:4.59048 3:-38.7837 4:0.0927815 5:0.39132 6:15.6168 7:0.135917 
4096 1:-16.5814 2:0.178585 3:-365.119 4:-0.15301 5:-19.0623 6:-7.73796 7:0.448571 
-4096 1:31.9292 2:0.205634 3:422.074 4:0.439932 5:4.13183 6:17.4142 7:-0.386206 
-4096 1:13.6185 2:-1.73811 3:-21.5486 4:0.543716 5:-0.722843 6:3.9654 7:0.155717 
4096 1:-5.30813 2:4.9984 3:243.531 4:0.315271 5:9.67801 6:16.3015 7:-0.285561 
-4096 1:12.3815 2:-6.07523 3:52.0247 4:0.78015 5:10.8697 6:-4.23445 7:-0.426247 
4096 1:-10.5937 2:1.37436 3:-84.466 4:0.521945 5:1.85906 6:-1.56749 7:-0.201237 
-4096 1:5.06134 2:-0.861424 3:-405.12 4:-0.0946504 5:11.3547 6:1.03975 7:-0.213832 
-4096 1:8.93876 2:-9.47856 3:191.35 4:0.635942 5:16.4878 6:-7.31833 7:-0.537395 
-4096 1:-8.90603 2:1.28976 3:6.29287 4:0.684117 5:-5.12763 6:5.66127 7:0.155944 
4096 1:-1.35475 2:-4.02869 3:-342.233 4:0.930332 5:17.8633 6:-15.2281 7:-0.311837 
-4096 1:7.07142 2:-2.93986 3:-59.5282 4:0.771645 5:4.83707 6:5.7137 7:-0.131723 
-4096 1:-20.822 2:5.92132 3:16.2562 4:-0.324084 5:-2.91034 6:7.83505 7:0.0571984 
-4096 1:10.9434 2:-10.5054 3:-0.690881 4:0.177454 5:13.8877 6:-16.4771 7:-0.236772 
-4096 1:1.48061 2:-8.90585 3:-474.289 4:0.228442 5:-12.2808 6:-16.1081 7:0.317191 
-4096 1:10.5887 2:-2.32882 3:413.016 4:-0.0865231 5:-6.81214 6:0.341839 7:0.133293 
-4096 1:5.21516 2:-0.600603 3:380.136 4:-0.712097 5:-13.6488 6:5.08763 7:0.236703 
-4096 1:-0.983143 2:-7.57832 3:31.3213 4:-0.20398 5:15.9345 6:-12.1681 7:-0.510782 
-4096 1:6.03049 2:-6.61622 3:181.528 4:-0.0330676 5:24.723 6:-8.78088 7:-0.69132 
-4096 1:19.6268 2:-8.39148 3:548.168 4:-0.886271 5:22.2178 6:-17.2666 7:-0.638371 
-4096 1:3.84936 2:-6.51147 3:-196.527 4:0.767253 5:28.3091 6:-2.86149 7:-0.666476 
-4096 1:-6.08956 2:-6.66448 3:-94.4782 4:-0.365673 5:12.509 6:-15.156 7:-0.36671 
-4096 1:-6.17803 2:-0.837304 3:279.011 4:-0.339185 5:-8.95704 6:5.06201 7:-0.131194 
4096 1:5.6335 2:-4.55883 3:-184.685 4:0.232431 5:-12.1499 6:-5.55625 7:0.109303 
-4096 1:6.16987 2:-8.66633 3:-24.4995 4:-0.00528158 5:31.761 6:-11.71 7:-0.800177 
4096 1:-2.84909 2:3.62784 3:137.972 4:-0.189337 5:-21.4804 6:16.0128 7:0.379391 
-1628.143787978222 1:12.7761 2:5.50777 3:767.945 4:-0.0765338 5:0.456839 6:19.3838 7:-0.179765 
-4096 1:-11.7832 2:-5.05346 3:-301.058 4:0.48027 5:1.06958 6:-10.6548 7:0.159865 
-4096 1:2.25284 2:5.7763 3:-140.47 4:0.82327 5:-8.8607 6:18.7516 7:0.401592 
-4096 1:1.30236 2:-4.49905 3:280.508 4:-0.84211 5:9.51679 6:4.28678 7:-0.218959 
-4096 1:-5.36305 2:-2.34497 3:-30.7702 4:0.307971 5:24.401 6:-3.87001 7:-0.66673 
4096 1:8.10508 2:-5.88524 3:-140.994 4:0.925764 5:21.4313 6:-4.85624 7:-0.556196 
4096 1:7.48955 2:-7.83905 3:-222.064 4:1.02438 5:20.0721 6:-0.457555 7:-0.425312 
-4096 1:-4.18964 2:1.53351 3:34.7392 4:0.506962 5:-8.32444 6:9.53414 7:0.268749 
-4096 1:0.611598 2:-1.33773 3:3.7711 4:0.329876 5:-11.7567 6:4.24515 7:0.166888 
4096 1:7.6441 2:-11.102 3:-100.152 4:-0.304331 5:-8.71443 6:-22.2035 7:0.21763 
4096 1:8.92091 2:-5.4983 3:-357.4 4:0.902394 5:23.5902 6:-4.53882 7:-0.518045 
4096 1:-6.50504 2:-2.3104 3:-0.992113 4:0.414865 5:-7.08573 6:-0.985002 7:0.355842 
4096 1:-9.21397 2:3.94043 3:66.3317 4:-0.17397 5:-8.56048 6:14.6048 7:0.119195 
-4096 1:4.75688 2:-5.54728 3:-66.9444 4:0.381488 5:29.5275 6:-2.28073 7:-0.848203 
-4096 1:-3.49199 2:-0.980553 3:51.4337 4:0.110171 5:5.67056 6:-3.972 7:-0.384221 
4096 1:-14.1271 2:3.87517 3:-21.7608 4:0.0590456 5:-7.31866 6:0.958476 7:0.0817924 
-4096 1:-0.0700158 2:1.71687 3:38.1365 4:0.756085 5:-4.42078 6:9.61388 7:0.266358 
-4096 1:1.53226 2:-1.03071 3:180.3 4:0.37358 5:-5.62397 6:11.9709 7:0.0470213 
-4096 1:18.2217 2:-1.37709 3:-148.285 4:0.661843 5:19.4196 6:-2.64877 7:-0.478676 
-4096 1:-3.64464 2:-8.81819 3:-215.872 4:0.853712 5:13.1787 6:-12.5035 7:-0.272465 
-4096 1:-1.5206 2:-0.432334 3:141.453 4:-0.217054 5:8.68314 6:1.68601 7:-0.0361143 
-4096 1:-12.2869 2:-0.418235 3:-304.765 4:0.118682 5:4.57476 6:-0.575636 7:-0.00919901 
-4096 1:12.1812 2:-9.1229 3:-129.213 4:-0.0669145 5:10.791 6:-15.6109 7:-0.189081 
-4096 1:-4.76624 2:-2.43282 3:26.1309 4:0.534881 5:13.0467 6:1.59744 7:-0.220523 
-4096 1:14.9469 2:-7.6055 3:223.116 4:-0.237707 5:6.09914 6:-13.3098 7:0.0603235 
-4096 1:-2.59356 2:1.4062 3:-145.182 4:0.284267 5:-3.26496 6:5.9914 7:0.104772 
4096 1:-6.86373 2:-1.88961 3:-165.396 4:0.980387 5:8.62874 6:2.75881 7:-0.24908 
4096 1:6.21054 2:-1.5067 3:-15.1648 4:-0.188436 5:6.9962 6:7.15346 7:-0.328537 
4096 1:-13.2655 2:9.16375 3:-94.4607 4:-0.367828 5:-9.26323 6:18.12 7:0.170077 
-4096 1:4.4428 2:-10.3065 3:-210.483 4:0.747322 5:0.968751 6:-18.1324 7:0.0806938 
-4096 1:1.47414 2:-12.2772 3:87.0287 4:-0.338207 5:20.4818 6:-29.7993 7:-0.510337 
-4096 1:8.13392 2:4.7951 3:131.85 4:-0.484761 5:10.8651 6:1.40221 7:0.0221995 
-4096 1:1.155 2:3.23111 3:5.10679 4:-0.241878 5:4.16545 6:1.21967 7:-0.0983929 
-4096 1:2.31252 2:-4.57375 3:-65.9374 4:-0.166377 5:-4.01476 6:-5.86265 7:0.211859 
-4096 1:-14.6463 2:16.3454 3:-115.737 4:-0.460143 5:5.41608 6:16.6722 7:-0.0374429 
-4096 1:4.34403 2:-0.866897 3:130.953 4:-0.236498 5:6.86687 6:4.00799 7:-0.223848 
-4096 1:7.50507 2:-7.80618 3:193.008 4:0.286649 5:0.660299 6:1.86877 7:0.121657 
-4096 1:7.96046 2:-4.8148 3:148.38 4:0.181934 5:3.24361 6:-4.17073 7:-0.0181522 
4096 1:2.87934 2:0.0492676 3:-455.065 4:1.39274 5:12.0754 6:3.98568 7:-0.213134 
4096 1:-13.9971 2:-1.56918 3:-68.5086 4:-0.245302 5:-11.0531 6:-9.29303 7:0.402002 
-4096 1:14.5865 2:-4.19071 3:68.4824 4:0.629014 5:-13.6446 6:-3.51616 7:0.270495 
-4096 1:5.41448 2:-5.53043 3:-20.9333 4:0.357183 5:25.8749 6:-4.72568 7:-0.796778 
4096 1:20.2399 2:-6.75376 3:392.391 4:-0.253025 5:7.86277 6:-8.67725 7:-0.334923 
4096 1:2.55284 2:1.05122 3:237.346 4:-0.0475829 5:-10.2166 6:18.0178 7:0.164781 
-4096 1:10.0007 2:-13.1414 3:-6.5691 4:-0.257874 5:13.8199 6:-19.2397 7:-0.312193 
-4096 1:-1.41625 2:-4.33969 3:-451.222 4:0.163573 5:20.9726 6:2.95008 7:-0.534146 
-4096 1:-2.82149 2:-3.2429 3:-555.134 4:0.197788 5:15.0429 6:1.58791 7:-0.320359 
-4096 1:1.02487 2:-1.03139 3:-364.47 4:0.80262 5:15.4728 6:1.3841 7:-0.304031 
-4096 1:6.84922 2:-11.2881 3:38.4377 4:0.181482 5:17.1181 6:-17.9928 7:-0.477307 
-2303.845815050125 1:5.96409 2:-11.1866 3:-700.733 4:0.914365 5:10.1613 6:-7.45867 7:-0.230625 
-4096 1:-12.0099 2:6.0129 3:-19.5079 4:0.346689 5:-6.46743 6:7.9876 7:0.246654 
-4096 1:6.45738 2:-14.5951 3:-124.747 4:0.316675 5:-3.64699 6:-30.0417 7:0.0506312 
-4096 1:12.9317 2:-7.12179 3:-289.366 4:1.30097 5:-7.13617 6:-10.6567 7:0.299312 
4096 1:21.1294 2:-1.96726 3:645.092 4:-0.449655 5:-9.82529 6:10.1384 7:-0.187708 
-4096 1:18.5924 2:-5.29639 3:577.371 4:-0.0280784 5:-11.1686 6:-8.19645 7:0.0585389 
-3377.019421658473 1:18.9622 2:-7.77771 3:173.301 4:0.373162 5:23.2175 6:-5.92999 7:-0.638658 
-4096 1:8.98989 2:-3.84966 3:167.578 4:-0.77355 5:11.5352 6:4.15035 7:-0.163534 
4096 1:8.11398 2:-7.5245 3:-82.9919 4:0.283718 5:16.2499 6:-2.81879 7:-0.508001 
4096 1:10.8898 2:-8.25453 3:-55.7515 4:0.349981 5:20.8377 6:-5.01263 7:-0.44606 
4096 1:14.5684 2:-6.43842 3:-78.4038 4:0.443138 5:15.8307 6:1.70307 7:-0.544481 
4096 1:23.4377 2:-6.08937 3:880.36 4:-1.41812 5:34.8386 6:4.13821 7:-0.966408 
-4096 1:-4.74106 2:9.06452 3:54.4701 4:-0.0616519 5:0.954967 6:25.1471 7:-0.157821 
-4096 1:-8.57589 2:-0.854919 3:-386.279 4:0.544021 5:-11.8965 6:-2.28533 7:0.51325 
-4096 1:-4.60009 2:-0.897939 3:-305.878 4:0.722491 5:-2.60056 6:-9.3623 7:0.195827 
-4096 1:-13.8611 2:-0.892102 3:-151.604 4:0.00126489 5:-7.04944 6:-16.908 7:0.515703 
-4096 1:13.2683 2:8.68905 3:904.652 4:-0.514721 5:-13.1176 6:33.7816 7:0.136382 
4096 1:17.0495 2:-4.31642 3:5.46056 4:0.743411 5:28.6574 6:-1.37069 7:-0.619223 
4096 1:8.01917 2:-2.39034 3:94.9204 4:0.0925211 5:-11.8557 6:12.7929 7:0.450843 
-4096 1:11.3762 2:-8.15967 3:265.645 4:-0.0766506 5:-1.76527 6:-4.61311 7:-0.154375 
4096 1:19.6587 2:-8.37441 3:250.794 4:0.456619 5:3.34627 6:-5.19831 7:-0.104898 
4096 1:-2.88837 2:1.97286 3:-113.113 4:-0.0466464 5:-7.11471 6:13.1922 7:0.242307 
-4096 1:2.94072 2:-11.7663 3:-415.705 4:1.18373 5:4.71799 6:-20.0102 7:-0.194056 
-4096 1:-2.1727 2:-0.595487 3:-101.424 4:0.365545 5:19.965 6:-0.902527 7:-0.491492 
4096 1:-12.7535 2:6.1194 3:-75.2555 4:0.890643 5:13.4011 6:21.7461 7:-0.347581 
-4096 1:-16.1523 2:7.89813 3:-387.071 4:0.327388 5:-2.52201 6:13.6916 7:0.0172392 
-4096 1:-2.01648 2:-0.296724 3:-63.0708 4:0.428744 5:2.66246 6:8.94053 7:-0.0645872 
-4096 1:-11.1164 2:2.21804 3:-165.698 4:0.298537 5:0.939248 6:6.61851 7:0.0297678 
-4096 1:-11.7529 2:2.44268 3:-211.785 4:-0.17863 5:11.0502 6:9.62291 7:-0.285248 
4096 1:10.9658 2:0.106414 3:52.9968 4:0.126969 5:-6.36856 6:12.9107 7:0.110032 
4096 1:6.46837 2:0.134816 3:-283.23 4:0.599935 5:-4.30787 6:9.4167 7:0.247516 
-4096 1:-4.66289 2:0.736189 3:-173.287 4:0.879691 5:7.35937 6:4.65862 7:-0.164834 
-4096 1:0.608067 2:-2.53149 3:192.221 4:0.0364914 5:-8.5323 6:0.86306 7:0.391732 
-4096 1:1.944 2:1.61214 3:9.52209 4:0.552907 5:-3.87703 6:4.54882 7:0.0727098 
-4096 1:-22.4817 2:2.97982 3:-153.369 4:-0.210379 5:-3.03083 6:3.10928 7:0.0679709 
-4096 1:-4.04811 2:-0.450898 3:-336.264 4:0.770292 5:-7.20295 6:-1.32538 7:0.128328 
-4096 1:-1.38097 2:0.261591 3:-174.497 4:0.392449 5:-9.34713 6:1.39723 7:0.0886613 
-4096 1:-9.65794 2:1.56443 3:-315.135 4:0.381574 5:-5.50273 6:-5.66496 7:-0.0238945 
-4096 1:-3.78776 2:-3.17177 3:-468.638 4:0.288746 5:-15.5698 6:-15.9863 7:0.281653 
-4096 1:7.11851 2:-0.658129 3:88.4047 4:-0.570714 5:4.59904 6:11.0843 7:-0.268344 
-4096 1:-2.61643 2:0.186091 3:336.344 4:-0.0152945 5:-2.82033 6:15.2469 7:-0.145036 
4096 1:9.80369 2:-8.55963 3:549.573 4:-0.0920891 5:3.56075 6:-2.4415 7:-0.309806 
-4096 1:3.64092 2:-0.532082 3:-35.6384 4:-0.164067 5:-2.75584 6:-1.13586 7:-0.00288055 
4096 1:-1.7175 2:-0.153095 3:-233.586 4:1.06496 5:3.47369 6:11.4171 7:-0.0963418 
-4096 1:0.78126 2:-2.80396 3:-189.729 4:0.929718 5:-3.80124 6:-0.215674 7:0.266774 
-4096 1:-1.33243 2:-1.32738 3:10.6297 4:0.746641 5:-8.3532 6:9.19807 7:0.353954 
-4096 1:-7.3063 2:-0.312423 3:-152.024 4:-0.407894 5:14.3834 6:4.18817 7:-0.332605 
-4096 1:-17.3477 2:8.4178 3:-125.344 4:-0.385263 5:-6.52597 6:8.52481 7:0.107843 
-4096 1:-14.2629 2:3.97655 3:-326.602 4:-0.574045 5:-21.0635 6:-14.909 7:1.14362 
-4096 1:-10.5857 2:-2.75181 3:-72.6828 4:-0.134086 5:-10.5142 6:-10.7078 7:0.111818 
-4096 1:-14.1737 2:8.95885 3:110.972 4:-1.88914 5:-38.1463 6:4.98976 7:0.584243 
4096 1:15.0462 2:-6.54779 3:-245.022 4:0.331702 5:15.7688 6:-10.4069 7:-0.345716 
-4096 1:23.8538 2:0.819074 3:-136.557 4:0.919327 5:24.1524 6:12.9977 7:-0.508681 
-4096 1:9.43634 2:-1.53451 3:-3.68575 4:0.211638 5:14.959 6:-4.44741 7:-0.390272 
-4096 1:-7.71845 2:-4.57816 3:-14.5749 4:-0.207488 5:1.93576 6:-3.24816 7:-0.158659 
-4096 1:-5.79753 2:-3.29252 3:-252.08 4:0.513052 5:1.64163 6:0.845162 7:-0.202936 
4096 1:11.098 2:-8.40305 3:61.9064 4:0.86919 5:12.7784 6:-0.854454 7:-0.471854 
-4096 1:-4.12588 2:-2.94069 3:-21.8071 4:0.263569 5:5.94405 6:-4.92989 7:0.00480357 
-270.9684095946918 1:22.4514 2:-3.51625 3:-1995.58 4:2.92849 5:5.30463 6:2.83985 7:0.869978 
-4096 1:2.80672 2:-0.893859 3:-39.5904 4:0.236419 5:-1.33664 6:1.69383 7:-0.0828526 
-4096 1:11.0151 2:1.58832 3:131.721 4:0.0878218 5:18.471 6:9.80612 7:-0.439736 
-4096 1:10.2247 2:5.27844 3:28.2826 4:0.168325 5:-21.6962 6:11.324 7:0.862569 
-4096 1:4.34302 2:-6.41231 3:-32.4005 4:0.783161 5:15.2966 6:-2.25832 7:-0.222064 
4096 1:-5.75742 2:-7.85185 3:-224.147 4:-0.562572 5:18.2968 6:-15.4325 7:-0.391623 
4096 1:19.9474 2:-5.14463 3:459.395 4:0.02933 5:1.39599 6:-1.58905 7:-0.260146 
4096 1:7.59104 2:-3.28581 3:-27.9096 4:0.124206 5:-7.02265 6:-2.03233 7:0.102692 
-4096 1:-0.322732 2:-3.88901 3:-518.601 4:1.05136 5:8.32053 6:-7.70427 7:-0.0714087 
-4096 1:12.94 2:3.46944 3:474.679 4:0.310809 5:2.67457 6:32.4613 7:-0.240237 
-4096 1:5.16602 2:1.05644 3:603.52 4:-0.992645 5:-2.74456 6:23.5766 7:-0.150418 
4096 1:13.551 2:-3.73612 3:76.319 4:0.64649 5:21.7157 6:6.55555 7:-0.625456 
-4096 1:3.45395 2:-3.32153 3:266.932 4:-0.406838 5:3.93737 6:-2.81186 7:-0.221368 
-4096 1:-5.62115 2:-7.38729 3:-51.9886 4:0.123957 5:-5.51375 6:-12.7635 7:-0.108021 
-4096 1:3.19084 2:-8.14029 3:83.6374 4:-0.0769103 5:-1.75877 6:-12.5805 7:-0.00594554 
-4096 1:15.7081 2:-5.43549 3:429.833 4:-0.267155 5:0.827045 6:-2.05602 7:-0.279704 
-4096 1:-5.02749 2:-1.49998 3:32.5045 4:-0.267768 5:12.7804 6:7.03294 7:-0.542901 
-4096 1:-9.69283 2:0.693283 3:-42.6893 4:-0.471841 5:12.8414 6:5.87597 7:-0.453654 
-4096 1:-1.64841 2:-4.48989 3:178.365 4:0.0727267 5:20.5668 6:1.69532 7:-0.759346 
4096 1:3.22796 2:-3.95374 3:289.616 4:0.286539 5:11.6144 6:12.8222 7:-0.19649 
4096 1:-8.31478 2:1.21992 3:246.627 4:-0.676106 5:7.40656 6:9.7087 7:-0.151966 
-4096 1:18.5955 2:0.534709 3:325.058 4:-0.00638357 5:-12.0839 6:9.15538 7:0.378938 
-4096 1:23.7596 2:-2.12719 3:64.0059 4:0.393537 5:-15.5114 6:3.42636 7:0.494903 
-4096 1:-11.0528 2:1.12626 3:-438.427 4:-0.703093 5:-1.50913 6:0.947697 7:-0.069931 
-4096 1:-8.47483 2:-0.254894 3:-29.3854 4:-0.158799 5:16.7643 6:4.68888 7:-0.312332 
4096 1:5.03315 2:-8.61546 3:-221.655 4:-0.249064 5:-26.262 6:-16.9048 7:0.217222 
-4096 1:2.75029 2:-5.51464 3:-252.651 4:0.419648 5:19.0199 6:-8.33316 7:-0.333585 
-4096 1:13.3561 2:-4.41049 3:205.145 4:0.225349 5:8.04278 6:7.69351 7:-0.163486 
-939.6641807246282 1:-18.3251 2:10.8869 3:-983.8 4:1.16039 5:-12.8914 6:24.0684 7:0.545217 
-4096 1:-9.58876 2:3.52639 3:-71.4078 4:-0.101061 5:12.3917 6:16.9394 7:-0.538181 
-4096 1:1.68417 2:-1.97876 3:-152.098 4:0.477017 5:-11.384 6:-9.86492 7:0.469249 
4096 1:-4.31171 2:-0.0920933 3:136.878 4:0.578942 5:6.8124 6:6.07775 7:-0.0959537 
-4096 1:17.7299 2:-2.37969 3:131.214 4:0.0850846 5:-20.017 6:-2.99089 7:0.628357 
-4096 1:-1.61833 2:6.41439 3:46.709 4:-0.914622 5:13.0032 6:7.09785 7:-0.265899 
-4096 1:2.90503 2:2.90901 3:178.717 4:0.57618 5:21.9056 6:16.374 7:-0.729622 
-4096 1:-2.31399 2:-0.141939 3:306.466 4:-0.736266 5:-22.1319 6:3.89474 7:0.648682 
-4096 1:7.08921 2:-2.45735 3:-74.505 4:0.397087 5:8.76194 6:13.1134 7:-0.39529 
-4096 1:6.61849 2:2.23823 3:250.212 4:-0.646795 5:1.16097 6:24.5473 7:-0.208083 
4096 1:-2.19234 2:-3.47001 3:-434.251 4:0.458606 5:9.60265 6:-11.0903 7:-0.301134 
4096 1:-11.4237 2:-6.96956 3:-701.924 4:0.930254 5:3.89562 6:-12.9656 7:-0.235903 
-4096 1:22.1783 2:-6.24693 3:189.682 4:0.693534 5:19.1771 6:-1.2587 7:-0.65222 
-4096 1:12.4642 2:-9.8213 3:-120.114 4:0.5942 5:6.69496 6:-9.43482 7:-0.143049 
-4096 1:13.2603 2:-4.80889 3:48.1583 4:-0.23399 5:2.46064 6:0.15019 7:-0.369294 
-4096 1:-13.5409 2:4.05413 3:-66.4103 4:0.492493 5:-0.0390952 6:17.08 7:0.00213564 
-4096 1:-4.79853 2:-2.97761 3:-19.8073 4:0.393489 5:-5.89062 6:4.31362 7:0.131867 
-4096 1:-6.53978 2:-5.16748 3:-309.697 4:0.646331 5:7.57742 6:-5.33104 7:-0.22652 
-4096 1:-23.6192 2:3.23029 3:-359.921 4:0.0546664 5:-1.01741 6:-7.50536 7:0.264352 
4096 1:0.376598 2:-0.936265 3:-57.8525 4:0.246736 5:14.4298 6:-12.6905 7:-0.305731 
4096 1:21.6939 2:-1.58218 3:-64.5528 4:0.353173 5:19.9433 6:12.2149 7:-0.507355 
395.1757141351612 1:-12.6584 2:2.88522 3:398.21 4:-0.410466 5:4.18342 6:14.8052 7:-0.0559921 
-4096 1:-1.05536 2:-7.08132 3:77.3979 4:-0.322742 5:19.3841 6:-3.56299 7:-0.366118 
-4096 1:4.26302 2:-10.3916 3:-32.1189 4:0.376201 5:11.8052 6:-12.1743 7:-0.192671 
-4096 1:-4.16165 2:-0.143491 3:68.6843 4:0.224723 5:10.0235 6:10.6496 7:-0.124457 
4096 1:-13.4837 2:6.79895 3:-83.7295 4:0.303211 5:3.34458 6:18.5175 7:-0.314194 
-4096 1:16.6897 2:-6.11239 3:326.727 4:0.386932 5:6.88911 6:3.62789 7:-0.330588 
4096 1:6.18218 2:-10.4004 3:-222.269 4:0.335702 5:16.7823 6:-15.4167 7:-0.191308 
4096 1:-15.5174 2:0.719667 3:-415.171 4:0.191328 5:11.9415 6:-0.193302 7:-0.445373 
4096 1:-5.73415 2:-5.78075 3:-492.82 4:0.431908 5:12.2783 6:-10.0567 7:-0.243786 
4096 1:-12.1668 2:1.77542 3:3.12828 4:-0.460612 5:14.9826 6:4.56806 7:-0.417166 
4096 1:8.61284 2:-0.870059 3:-239.988 4:0.604445 5:16.0689 6:4.52471 7:-0.382402 
4096 1:19.6393 2:-0.673158 3:-196.229 4:0.578069 5:25.23 6:11.4582 7:-0.576936 
4096 1:-10.9768 2:13.0194 3:-35.0486 4:-1.08556 5:-9.2599 6:13.4951 7:0.270073 
-4096 1:3.98433 2:-0.44401 3:-2.1268 4:0.362098 5:6.30487 6:5.10541 7:-0.05233 
-4096 1:-2.47554 2:-2.64412 3:-37.7604 4:0.639498 5:-6.28234 6:5.83373 7:0.167041 
-4096 1:-1.08896 2:-1.92307 3:227.906 4:0.00661489 5:11.711 6:10.754 7:-0.187619 
-4096 1:-18.6739 2:5.03795 3:-111.216 4:0.0791001 5:20.9427 6:13.1757 7:-0.575975 
-4096 1:-22.1711 2:9.4834 3:-93.7443 4:-0.0477351 5:18.9593 6:6.35253 7:-0.438857 
-4096 1:5.44322 2:-5.01322 3:-133.11 4:-0.209904 5:10.604 6:-5.93751 7:-0.0932973 
4096 1:-21.1374 2:9.59336 3:-295.481 4:0.19179 5:0.67214 6:16.5822 7:-0.16452 
-4096 1:8.67937 2:0.462343 3:37.5168 4:0.689003 5:-7.78566 6:16.4756 7:-0.00683945 
4096 1:14.2739 2:-6.62755 3:196.521 4:0.461291 5:14.2951 6:-0.546861 7:-0.36889 
4096 1:-3.04921 2:-10.1343 3:-293.296 4:-0.102435 5:15.8247 6:-27.3192 7:-0.408598 
4096 1:-13.2207 2:-5.92772 3:-34.1914 4:-0.43769 5:11.6663 6:-12.4042 7:-0.201667 
-4096 1:10.1437 2:-3.07383 3:-9.04123 4:0.478288 5:-13.8904 6:9.27802 7:0.368398 
4096 1:-14.4111 2:0.823993 3:-338.122 4:0.532033 5:-10.0878 6:1.86347 7:0.440923 
-4096 1:-9.35183 2:-2.51039 3:-240.526 4:0.580334 5:-1.36644 6:0.236146 7:0.18846 
4096 1:4.7113 2:3.0259 3:-65.8787 4:0.781513 5:3.66414 6:15.2704 7:-0.301575 
-4096 1:-16.8478 2:-1.46501 3:-97.1019 4:0.332833 5:12.4264 6:2.46089 7:-0.258896 
-4096 1:-8.38939 2:-2.11788 3:-233.974 4:-0.502257 5:20.652 6:-4.03559 7:-0.392071 
-4096 1:-4.10939 2:6.71714 3:110.074 4:0.558784 5:6.52412 6:23.6077 7:-0.23911 
-4096 1:7.81729 2:-10.8185 3:56.4163 4:0.683345 5:18.2693 6:-15.0001 7:-0.523438 
4096 1:-10.9544 2:7.55524 3:-12.1774 4:0.302174 5:9.64725 6:15.3484 7:-0.335632 
-4096 1:-16.3562 2:-1.40261 3:-144.761 4:0.0161232 5:14.3511 6:2.52921 7:-0.180591 
-4096 1:-8.90355 2:2.52642 3:12.4462 4:-0.478171 5:5.85543 6:5.66835 7:-0.0523131 
-4096 1:-13.8841 2:-2.74661 3:-31.1232 4:-0.0796752 5:14.8828 6:-3.06434 7:-0.297051 
-4096 1:6.67721 2:-8.98077 3:127.885 4:0.0195046 5:21.4555 6:-10.0561 7:-0.629772 
-4096 1:-9.64713 2:1.43476 3:-55.083 4:0.26831 5:1.13508 6:2.59604 7:-0.0951806 
-4096 1:-9.42769 2:-0.921208 3:-239.367 4:0.754242 5:-2.01074 6:1.36888 7:0.323241 
-4096 1:13.3658 2:-5.13723 3:-245.588 4:1.38065 5:8.716 6:5.04025 7:-0.261984 
-4096 1:13.2581 2:-7.04539 3:-68.418 4:0.584118 5:14.5887 6:-1.22539 7:-0.325298 
-4096 1:14.3382 2:-3.39759 3:48.9419 4:0.368886 5:14.3232 6:8.44915 7:-0.338539 
-4096 1:2.10678 2:-2.98461 3:-48.6372 4:0.241701 5:14.7988 6:3.85098 7:-0.33153 
4096 1:-3.53659 2:-4.31746 3:-121.694 4:-0.332722 5:9.48186 6:2.35948 7:-0.41311 
4096 1:-12.7327 2:3.71259 3:-173.48 4:0.794733 5:5.76774 6:7.97418 7:-0.314612 
-4096 1:3.80946 2:-8.721 3:123.447 4:0.182219 5:20.9982 6:-6.35198 7:-0.4868 
-4096 1:-1.10963 2:-2.16745 3:83.0072 4:1.02737 5:25.1909 6:0.481275 7:-0.648012 
-4096 1:6.2783 2:-2.45896 3:-153.881 4:0.374718 5:-1.18882 6:-3.17207 7:-0.126015 
-4096 1:6.82455 2:-4.62227 3:87.9794 4:-0.236136 5:9.62091 6:-10.4669 7:-0.0811094 
-4096 1:-4.24186 2:-5.66279 3:-70.5915 4:-0.112353 5:19.0268 6:-4.03172 7:-0.51522 
4096 1:1.40137 2:-11.7176 3:-77.8366 4:0.143433 5:8.69259 6:-19.4687 7:-0.17357 
-4096 1:-0.868007 2:-2.02871 3:0.0512062 4:0.0824447 5:34.1347 6:0.171059 7:-0.803996 
-4096 1:-1.79371 2:-4.25025 3:-179.827 4:-0.135344 5:-8.84221 6:-1.62344 7:-0.0846798 
-4096 1:10.2639 2:8.48522 3:480.27 4:0.0140827 5:-1.28223 6:29.7585 7:-0.0960196 
-4096 1:-3.1409 2:-1.88315 3:193.955 4:-0.765767 5:19.7362 6:-3.73409 7:-0.548178 
-4096 1:21.901 2:-3.58564 3:254.162 4:0.52819 5:5.38496 6:13.4754 7:-0.165688 
-4096 1:13.478 2:0.144622 3:205.754 4:-0.130096 5:-9.58658 6:15.2763 7:-0.02403 
4096 1:9.88843 2:-3.61089 3:1.58195 4:0.662391 5:-1.18807 6:9.62287 7:0.00951895 
4096 1:6.19355 2:-6.37893 3:-98.7689 4:0.171083 5:-7.4109 6:-0.977613 7:0.101052 
4096 1:-9.88384 2:0.996383 3:303.863 4:0.132196 5:13.6954 6:12.029 7:-0.433135 
4096 1:-1.46876 2:-8.25197 3:293.796 4:0.42869 5:17.5609 6:-7.38659 7:-0.550797 
4096 1:-4.52197 2:2.65339 3:-77.7123 4:0.325704 5:10.8716 6:6.98734 7:-0.129194 
4096 1:-10.5996 2:1.79444 3:-100.484 4:0.330898 5:7.95282 6:15.6454 7:-0.332912 
-4096 1:14.1743 2:-3.41691 3:135.369 4:0.183196 5:18.657 6:11.4386 7:-0.474457 
4096 1:-16.8504 2:5.98435 3:-462.404 4:1.06865 5:2.07988 6:14.3711 7:-0.0226662 
-4096 1:16.4134 2:-6.94365 3:158.672 4:0.204776 5:11.3871 6:-1.47075 7:-0.203344 
4096 1:-0.34512 2:-4.63263 3:-216.357 4:0.418713 5:-5.25945 6:-6.31245 7:0.125372 
-4096 1:17.265 2:-6.92521 3:454.119 4:0.158097 5:-7.55848 6:-0.977287 7:-0.169463 
-4096 1:-0.198449 2:-2.49552 3:147.467 4:-0.409439 5:-1.78044 6:2.87958 7:0.212788 
-4096 1:2.32503 2:2.58473 3:159.54 4:-0.645165 5:-3.68232 6:9.42548 7:0.430442 
-4096 1:-0.342836 2:2.65119 3:420.599 4:-0.543245 5:-1.05027 6:12.8498 7:0.327352 
-4096 1:-4.88103 2:4.48114 3:191.833 4:-0.243059 5:-10.6832 6:8.74622 7:0.658208 
-4096 1:-2.93215 2:-1.10544 3:175.795 4:-0.516073 5:6.3126 6:-4.04413 7:0.143107 
-4096 1:-4.83913 2:1.28057 3:380.633 4:-0.295347 5:-0.736091 6:18.0233 7:0.100795 
-4096 1:-10.2908 2:-1.78451 3:-31.9363 4:-0.544368 5:9.05628 6:-7.80177 7:0.0772004 
-4096 1:17.2782 2:-5.56183 3:658.981 4:-0.165377 5:-2.23466 6:5.57562 7:-0.214612 
-4096 1:-0.135032 2:1.41587 3:-111.591 4:0.395845 5:23.5537 6:-9.36496 7:-0.59178 
-4096 1:-3.24921 2:-4.20125 3:117.241 4:-0.440052 5:-8.44883 6:0.218791 7:0.374522 
-4096 1:20.3775 2:-3.638 3:164.714 4:0.0290941 5:-13.787 6:5.05761 7:-0.00931174 
-4096 1:3.84001 2:-5.96988 3:257.729 4:-0.369847 5:1.70194 6:-10.6717 7:-0.230076 
-4096 1:2.50629 2:-9.61868 3:236.281 4:-0.798455 5:12.4818 6:-14.6282 7:-0.38472 
4096 1:-6.71577 2:1.37024 3:186.34 4:0.155595 5:-23.075 6:14.8712 7:0.405129 
-4096 1:9.43716 2:2.78671 3:284.509 4:-0.483943 5:-19.5472 6:22.2392 7:0.492059 
-4096 1:10.2434 2:-3.54857 3:44.2499 4:0.580939 5:10.7972 6:3.77994 7:-0.40535 
-4096 1:-5.01967 2:5.04901 3:-145.421 4:-0.550937 5:-12.8889 6:9.03299 7:0.296007 
4096 1:5.86066 2:-2.49153 3:138.93 4:-0.506991 5:7.19626 6:-10.3948 7:-0.206272 
-4096 1:-1.15174 2:-6.92349 3:156.653 4:-0.679883 5:17.5101 6:-12.0953 7:-0.442213 
-4096 1:-1.72111 2:6.14214 3:-245.663 4:-0.143579 5:16.0079 6:5.02989 7:-0.404663 
4096 1:-2.82822 2:-2.98316 3:110.939 4:0.227197 5:10.2592 6:-0.562878 7:-0.0925121 
4096 1:12.7641 2:3.23212 3:560.784 4:-0.580329 5:17.5879 6:17.3745 7:-0.308409 
-4096 1:-0.826851 2:7.06139 3:-193.278 4:0.568176 5:3.84013 6:13.5848 7:-0.0304 
-4096 1:14.711 2:-7.76456 3:181.008 4:-0.00231991 5:6.18817 6:-9.43647 7:-0.147148 
-4096 1:-11.3051 2:4.58112 3:26.9725 4:-0.362917 5:-13.3342 6:-1.84175 7:0.238551 
-4096 1:-5.90862 2:2.72849 3:3.29206 4:0.104979 5:5.19477 6:7.96151 7:-0.333895 
4096 1:-16.5146 2:10.1924 3:-176.447 4:0.192429 5:-9.33208 6:11.3797 7:0.259599 
-4096 1:-2.61932 2:4.10257 3:-166.327 4:0.18717 5:16.4394 6:11.6632 7:-0.373949 
-4096 1:11.6893 2:-7.35551 3:176.879 4:0.506202 5:11.1989 6:-6.85146 7:-0.469153 
-4096 1:2.7147 2:-0.163828 3:-372.396 4:0.93687 5:-11.9536 6:-2.89456 7:0.178912 
-4096 1:10.1234 2:0.220503 3:-249.543 4:0.822081 5:0.951808 6:4.79194 7:-0.19356 
4096 1:1.47872 2:-3.39266 3:63.4962 4:-0.396783 5:20.488 6:-12.3586 7:-0.504335 
-4096 1:0.17716 2:-1.06759 3:-301.181 4:-0.286393 5:-5.69731 6:-0.324291 7:-0.0919822 
4096 1:6.34498 2:-0.707844 3:191.762 4:-0.0783954 5:6.51313 6:-3.50726 7:-0.314271 
-4096 1:-0.768186 2:-6.9435 3:-435.864 4:0.801223 5:2.70668 6:-19.7717 7:-0.050313 
-4096 1:-7.01492 2:-1.29268 3:259.187 4:0.00304371 5:-8.55369 6:-14.1539 7:0.376865 
-4096 1:-8.92344 2:-8.3364 3:-202.004 4:0.30077 5:-21.1769 6:-27.2247 7:0.326351 
-4096 1:-9.74208 2:2.28269 3:-535.8 4:0.443462 5:-1.79527 6:0.713492 7:0.296785 
-4096 1:-12.8018 2:6.13331 3:-336.743 4:0.445852 5:-12.5769 6:12.4123 7:0.288105 
-4096 1:-9.84993 2:1.25955 3:36.3488 4:-0.101799 5:9.0566 6:4.59962 7:-0.439692 
-4096 1:8.10788 2:-6.15943 3:-87.1021 4:0.691625 5:6.97772 6:-13.3018 7:-0.355339 
-4096 1:-9.7123 2:-7.56831 3:-458.751 4:0.352114 5:7.41534 6:-26.6076 7:-0.243202 
-4096 1:-2.5634 2:-7.31739 3:-143.608 4:0.590529 5:5.82672 6:-4.79259 7:-0.0569067 
-4096 1:-0.00701455 2:0.329528 3:46.0984 4:0.430116 5:2.54816 6:-7.71909 7:0.00298743 
-4096 1:6.59992 2:0.115426 3:125.97 4:0.0917925 5:-8.66426 6:-2.30058 7:0.00376083 
-4096 1:0.345145 2:-0.64644 3:95.4507 4:0.309606 5:-5.25074 6:-7.5809 7:-0.0835599 
-4096 1:2.14057 2:-0.795311 3:33.2375 4:0.655252 5:-9.88404 6:-7.02194 7:-0.0599611 
-4096 1:-12.0714 2:20.506 3:113.262 4:-0.465636 5:-1.19899 6:32.9142 7:0.0189905 
-4096 1:-8.89834 2:17.1794 3:124.555 4:-0.587873 5:-2.11462 6:26.9894 7:-0.079291 
-4096 1:2.25617 2:-12.8874 3:-269.15 4:0.312928 5:4.6354 6:-28.0096 7:-0.197089 
-4096 1:22.2619 2:-11.7945 3:1008.33 4:-1.03936 5:9.36965 6:-14.0506 7:-0.57707 
-4096 1:6.54001 2:10.2741 3:379.541 4:-0.222408 5:4.02139 6:26.0438 7:-0.198001 
-4096 1:-0.875946 2:8.39237 3:104.366 4:0.294422 5:0.942992 6:18.4682 7:-0.0865474 
-4096 1:-0.754678 2:6.11023 3:106.425 4:0.38118 5:8.51329 6:16.6002 7:-0.239199 
-4096 1:-3.6946 2:-0.766461 3:-33.6915 4:0.652054 5:-3.18841 6:7.78435 7:0.0857595 
4096 1:-2.94652 2:1.8427 3:-204.908 4:0.0784156 5:20.4585 6:9.09521 7:-0.557818 
4096 1:-3.95065 2:3.44405 3:-487.783 4:0.671003 5:17.0604 6:-9.89857 7:-0.39522 
-4096 1:-7.57158 2:-11.6476 3:-651.882 4:0.583975 5:9.1571 6:-28.1583 7:-0.120156 
-4096 1:11.5366 2:-8.20586 3:215.909 4:-0.281433 5:3.16751 6:-12.9853 7:-0.116848 
-4096 1:-17.7155 2:9.57372 3:-142.535 4:0.306504 5:-3.62117 6:2.47414 7:0.501481 
-4096 1:9.77426 2:-2.88578 3:-1.48667 4:0.665246 5:3.35217 6:-7.2421 7:-0.259616 
-4096 1:19.2018 2:-1.40643 3:11.1463 4:0.855572 5:16.4199 6:-3.37213 7:-0.371405 
-4096 1:7.40123 2:-3.39947 3:-191.656 4:0.836281 5:5.51463 6:0.213448 7:-0.281294 
-4096 1:-12.5757 2:9.88253 3:-410.129 4:0.73503 5:-7.76951 6:-0.0617189 7:0.184499 
-4096 1:8.02365 2:-6.16503 3:-536.099 4:0.217289 5:1.18441 6:-8.75637 7:0.0857568 
4096 1:16.9866 2:-6.65553 3:-196.286 4:0.18631 5:27.2371 6:-6.02429 7:-0.706931 
-4096 1:0.657701 2:0.693181 3:-84.5933 4:0.745501 5:-3.35358 6:-0.371038 7:-0.0127219 
-4096 1:-8.0447 2:5.72961 3:-561.253 4:0.732245 5:-8.77926 6:4.89861 7:0.293664 
4096 1:0.383693 2:-2.41382 3:-439.924 4:0.8362 5:8.46142 6:7.6908 7:-0.213845 
4096 1:4.15597 2:-2.10987 3:-471.644 4:0.662806 5:1.6335 6:7.39165 7:-0.28167 
4096 1:6.66817 2:-3.5108 3:-300.129 4:0.551597 5:-7.19772 6:6.89071 7:-0.119691 
-4096 1:6.0572 2:-5.55765 3:-51.4507 4:0.183628 5:-3.99254 6:-2.56604 7:-0.0920557 
-4096 1:-18.8969 2:-2.47279 3:-370.018 4:0.00506396 5:-2.20296 6:-13.1753 7:0.169664 
-4096 1:-16.8344 2:5.05525 3:-343.239 4:0.4274 5:5.11965 6:1.29186 7:0.11005 
-4096 1:-5.8835 2:-2.40966 3:-424.579 4:0.446702 5:13.5981 6:-6.21723 7:-0.321414 
4096 1:-0.978548 2:-5.61784 3:-100.735 4:1.12761 5:3.97033 6:-9.9514 7:-0.258847 
-4096 1:14.2243 2:-2.49891 3:-1.82985 4:0.57721 5:17.5591 6:-0.0855363 7:-0.495442 
-4096 1:19.1718 2:3.41314 3:223.66 4:0.0397941 5:-4.63185 6:8.91443 7:0.186906 
-4096 1:-9.81495 2:9.33606 3:-319.974 4:0.251648 5:13.3937 6:6.32793 7:-0.39239 
-4096 1:7.50774 2:-4.44752 3:78.8783 4:0.145272 5:0.65139 6:-4.02666 7:-0.303159 
-4096 1:7.35997 2:-6.68645 3:55.8465 4:0.325655 5:14.0153 6:-9.88046 7:-0.423211 
-4096 1:-18.8724 2:-0.532761 3:-384.99 4:-0.0392771 5:-15.4577 6:-13.9914 7:0.31204 
-4096 1:13.4659 2:-2.11009 3:-91.1548 4:-0.88542 5:29.6982 6:4.63543 7:-0.788462 
-4096 1:6.38189 2:6.29944 3:-134.243 4:0.274254 5:-8.78937 6:10.0374 7:0.372919 
-4096 1:-8.37127 2:0.611391 3:665.545 4:-0.507872 5:-7.14185 6:3.47552 7:-0.247916 
-4096 1:8.20558 2:-8.12027 3:192.739 4:0.456504 5:-12.9316 6:-7.89909 7:0.129315 
-4096 1:-5.5436 2:6.14071 3:226.991 4:0.191724 5:14.4051 6:10.7131 7:-0.375939 
-4096 1:0.292766 2:5.2819 3:-198.954 4:-0.168863 5:-0.14233 6:14.8379 7:0.0686637 
-4096 1:13.8514 2:-3.38097 3:152.479 4:0.199824 5:10.3147 6:0.0232835 7:-0.139416 
-4096 1:4.84139 2:-3.97504 3:-29.4057 4:0.280887 5:0.174135 6:-3.17965 7:-0.0593928 
4096 1:3.44506 2:-5.01241 3:-245.258 4:0.0664857 5:-0.719029 6:-13.9238 7:0.12189 
-4096 1:0.6359 2:-1.84077 3:-268.097 4:0.243751 5:-9.99778 6:-2.65241 7:0.351722 
4096 1:-0.43568 2:3.80331 3:-347.194 4:0.724279 5:0.602982 6:4.95334 7:0.090047 
4096 1:6.76029 2:1.09052 3:-251.971 4:0.679563 5:-6.19181 6:-0.286189 7:0.283304 
4096 1:-8.08688 2:2.09972 3:-17.2419 4:-0.340124 5:-10.4766 6:8.65225 7:-0.0419539 
-4096 1:-10.0004 2:9.31072 3:-168.164 4:0.323985 5:-10.9825 6:12.6011 7:0.2149 
-4096 1:-5.13582 2:-1.27402 3:-371.638 4:0.933079 5:-1.95116 6:2.87348 7:-0.130484 
-4096 1:-1.84655 2:-2.27051 3:-90.2004 4:-0.151025 5:7.94389 6:-2.95896 7:-0.333965 
4096 1:-15.44 2:8.64646 3:-483.783 4:0.484332 5:8.09938 6:11.191 7:-0.252397 
-4096 1:13.6414 2:-5.48692 3:-100.412 4:0.659944 5:6.10173 6:-4.57558 7:-0.297458 
-4096 1:13.0332 2:-5.401 3:268.334 4:-0.0960078 5:17.9098 6:-15.1878 7:-0.437441 
4096 1:6.69717 2:-0.596944 3:100.622 4:-0.0437558 5:11.9213 6:4.62101 7:-0.392444 
4096 1:4.01251 2:5.24643 3:66.6384 4:0.290358 5:1.62962 6:3.42168 7:-0.260407 
-4096 1:-13.015 2:1.22256 3:-279.193 4:0.156676 5:0.957324 6:3.3486 7:-0.0866114 
-4096 1:8.89332 2:-10.3937 3:-23.7994 4:0.33605 5:3.92609 6:-20.4823 7:-0.245275 
-4096 1:-16.8799 2:4.56314 3:-454.605 4:-0.365283 5:3.11369 6:1.77802 7:0.0106109 
4096 1:10.7057 2:2.08683 3:69.3158 4:0.947753 5:-0.189715 6:16.787 7:-0.0590718 
-4096 1:-5.02268 2:5.27427 3:-500.809 4:0.75147 5:13.1747 6:-4.65397 7:-0.0804026 
-4096 1:3.21902 2:-8.26141 3:-407.376 4:0.335132 5:10.1814 6:-15.4919 7:-0.31151 
-4096 1:-6.70842 2:-1.67413 3:-271.595 4:0.452981 5:20.2567 6:-11.5038 7:-0.477469 
-4096 1:7.55309 2:-7.00766 3:-282.444 4:0.425394 5:7.53122 6:-9.94753 7:-0.231886 
-4096 1:-11.9659 2:-3.62905 3:-462.327 4:0.612599 5:-6.59407 6:-21.1134 7:0.321888 
-4096 1:2.5275 2:-3.96387 3:-420.363 4:0.330208 5:5.1196 6:2.27697 7:-0.207941 
-4096 1:4.75613 2:1.41486 3:375.397 4:-0.47043 5:2.73062 6:2.18142 7:-0.259232 
-4096 1:6.40685 2:-6.34649 3:112.307 4:0.136805 5:8.47926 6:-17.6888 7:-0.178276 
-3631.078720584571 1:-22.7459 2:8.78361 3:-119.305 4:-0.169327 5:-3.51814 6:-0.903273 7:0.439573 
4096 1:-20.3567 2:2.0564 3:-374.164 4:0.967319 5:8.39819 6:-15.0304 7:-0.0741719 
-4096 1:-22.8106 2:-1.79263 3:-476.283 4:0.491013 5:2.34951 6:-11.3136 7:0.215108 
-4096 1:-6.38235 2:0.846502 3:-268.937 4:0.612654 5:8.15537 6:2.32115 7:-0.0503275 
-4096 1:19.445 2:-8.17251 3:410.835 4:0.612566 5:16.5449 6:-4.87887 7:-0.562433 
-4096 1:-0.0731562 2:1.2845 3:35.7665 4:0.46078 5:-16.8029 6:-6.9892 7:0.0978281 
4096 1:1.18092 2:-2.48369 3:-145.872 4:0.413804 5:-0.379889 6:-4.98006 7:-0.0122517 
-4096 1:-10.0343 2:10.4073 3:366.467 4:0.238138 5:1.15048 6:17.2523 7:-0.0947425 
-4096 1:5.27665 2:3.39875 3:110.083 4:0.296357 5:3.47906 6:19.0117 7:-0.28897 
-4096 1:-8.61736 2:-2.41435 3:-135.22 4:0.201955 5:2.59176 6:-8.30103 7:-0.177703 
-4096 1:-4.95785 2:-13.4738 3:-681.063 4:0.582794 5:5.52856 6:-35.6361 7:-0.284785 
-4096 1:19.6272 2:-6.83422 3:208.015 4:0.232523 5:-5.19453 6:-2.64199 7:-0.250994 
-4096 1:9.35767 2:-2.84196 3:441.299 4:-0.249269 5:6.08569 6:10.1431 7:-0.376418 
-4096 1:5.68236 2:-9.94428 3:-179.679 4:0.507435 5:20.0017 6:-28.6636 7:-0.222995 
-4096 1:-9.81766 2:3.55386 3:-95.6863 4:0.621507 5:2.67196 6:-1.65595 7:0.110113 
-4096 1:1.37318 2:-9.21846 3:-27.8449 4:0.768813 5:9.33041 6:-19.2458 7:-0.36108 
-4096 1:6.92329 2:-13.2973 3:-18.7783 4:0.824269 5:14.0028 6:-21.7325 7:-0.438529 
4096 1:-14.7829 2:14.3376 3:-198.274 4:0.260166 5:3.34719 6:24.2738 7:-0.161669 
-4096 1:9.96698 2:-9.149 3:-87.678 4:0.767285 5:12.5385 6:-16.1175 7:-0.228246 
4096 1:16.5283 2:2.36951 3:40.4087 4:0.256929 5:20.3918 6:11.7779 7:-0.526595 
-4096 1:-3.27701 2:-1.12947 3:-398.821 4:0.617635 5:16.1733 6:-4.55276 7:-0.455075 
-4096 1:-11.3301 2:12.2669 3:-320.198 4:0.0987951 5:3.96325 6:11.0077 7:-0.279701 
-4096 1:-2.64857 2:-4.68429 3:-332.464 4:1.01734 5:-0.218551 6:-14.2914 7:0.126858 
-4096 1:-12.1335 2:-4.55071 3:-410.234 4:0.687722 5:-3.08181 6:-11.6727 7:0.102345 
-4096 1:-9.80066 2:3.01845 3:-235.474 4:0.636267 5:11.507 6:9.50879 7:-0.431555 
3876.673567258795 1:15.8877 2:-6.39264 3:-290.236 4:0.66339 5:14.6756 6:-18.1884 7:-0.141785 
4096 1:-0.928896 2:1.4248 3:-170.601 4:0.0816043 5:4.27629 6:-0.897185 7:0.0380303 
4096 1:14.2068 2:-4.80319 3:-141.416 4:0.183139 5:7.36492 6:7.35771 7:-0.317658 
4096 1:2.33808 2:2.29718 3:-60.9141 4:-0.369282 5:-3.79419 6:-1.91032 7:-0.017499 
4096 1:-2.85358 2:-0.348691 3:253.103 4:0.0892372 5:0.933733 6:-12.299 7:-0.126607 
4096 1:7.5433 2:2.40068 3:783.548 4:0.229355 5:-7.22672 6:29.9942 7:0.0465137 
4096 1:-6.26056 2:2.24825 3:-37.6248 4:0.286648 5:-4.40785 6:3.87199 7:-0.104131 
-4096 1:1.84242 2:-8.49496 3:-359.723 4:0.643288 5:12.6112 6:-8.54927 7:-0.465724 
-4096 1:2.20324 2:-1.78989 3:-422.405 4:1.32792 5:17.8893 6:2.59331 7:-0.456583 
4096 1:13.4527 2:-9.11513 3:233.311 4:-0.0945175 5:18.7536 6:-9.25098 7:-0.548358 
-4096 1:-8.52611 2:-3.96677 3:34.4274 4:-0.0640179 5:11.6019 6:-13.8324 7:-0.391724 
-4096 1:12.0728 2:-6.91348 3:-129.647 4:0.271354 5:0.369346 6:-9.50717 7:-0.120525 
-4096 1:7.7066 2:-6.88954 3:-195.283 4:0.264932 5:-1.38073 6:-9.05886 7:-0.0913146 
4096 1:-8.60744 2:3.88255 3:-180.191 4:0.756884 5:-4.65048 6:0.332141 7:0.0171901 
-4096 1:-14.5865 2:4.75214 3:-117.54 4:-0.193703 5:-0.913767 6:-1.22781 7:-0.150801 
-4096 1:-12.4812 2:2.01539 3:-277.254 4:0.69944 5:3.0665 6:7.87082 7:-0.146397 
-4096 1:1.11738 2:-2.96719 3:-264.914 4:0.174452 5:8.05276 6:-3.8742 7:-0.273267 
-4096 1:1.13106 2:2.48767 3:-260.717 4:-0.17276 5:4.1073 6:-1.22018 7:-0.194529 
-4096 1:7.32235 2:3.29169 3:-138.332 4:0.41537 5:-9.32241 6:-0.239781 7:0.379375 
-4096 1:-4.2212 2:3.51779 3:-308.541 4:0.381822 5:-0.435075 6:-1.62215 7:0.402014 
-4096 1:5.28261 2:2.88288 3:213.477 4:-0.00317463 5:-2.26107 6:6.09551 7:-0.206497 
-4096 1:-4.14885 2:6.33914 3:-195.739 4:0.785834 5:5.45332 6:11.3564 7:-0.335018 
-4096 1:-9.7149 2:12.9426 3:-122.475 4:0.786672 5:0.858154 6:20.7699 7:-0.125669 
-4096 1:-0.805257 2:3.62062 3:-62.3933 4:0.414736 5:15.2246 6:10.681 7:-0.464702 
4096 1:-1.29079 2:3.48094 3:-271.415 4:-0.0999739 5:13.3714 6:-1.45966 7:-0.321871 
-4096 1:-14.2035 2:13.8883 3:-198.725 4:-0.135979 5:10.8555 6:9.81449 7:-0.000445089 
-4096 1:-6.75443 2:9.45245 3:-331.023 4:0.0367919 5:-9.40309 6:8.39641 7:0.358192 
-4096 1:4.18079 2:-0.482421 3:-8.78409 4:-0.0811082 5:25.8486 6:5.73106 7:-0.692868 
-4096 1:-17.0273 2:4.35087 3:-490.147 4:0.625242 5:-0.169895 6:-2.92208 7:0.0668955 
-4096 1:-3.31813 2:-7.52493 3:-309.835 4:0.304382 5:4.62557 6:-7.37476 7:-0.126962 
-4096 1:-7.53784 2:5.05439 3:30.4474 4:0.656074 5:-11.1305 6:11.2159 7:0.20739 
-4096 1:4.28017 2:-6.28002 3:-212.214 4:0.435277 5:18.223 6:-9.78061 7:-0.603314 
-4096 1:3.77772 2:1.22844 3:208.998 4:0.135561 5:-9.38934 6:5.88965 7:-0.0745001 
-4096 1:-2.93664 2:-8.21244 3:-387.978 4:0.0341241 5:5.65509 6:-20.7877 7:0.127037 
-4096 1:2.47994 2:-0.500331 3:-326.894 4:0.707228 5:29.7026 6:-8.4692 7:-0.626162 
-4096 1:4.36832 2:-2.79015 3:-206.817 4:0.478129 5:-16.1983 6:-6.77858 7:0.315953 
-4096 1:3.14321 2:-11.358 3:-221.677 4:-0.0607694 5:-0.178012 6:-18.4277 7:-0.117196 
-4096 1:0.978928 2:3.66652 3:34.6715 4:0.447088 5:-9.6042 6:1.73846 7:0.37068 
4096 1:14.8609 2:-6.45453 3:320.02 4:0.164808 5:12.7202 6:-1.4449 7:-0.490691 
-4096 1:13.3255 2:-0.531774 3:-30.7489 4:0.190392 5:-1.39459 6:0.93713 7:0.0531392 
4096 1:14.9142 2:-10.316 3:153.937 4:0.799741 5:6.5656 6:-12.1809 7:-0.334002 
-4096 1:12.6344 2:-2.07106 3:40.073 4:0.705899 5:19.0548 6:7.31914 7:-0.555307 
-4096 1:1.36092 2:-7.0748 3:-247.006 4:0.342484 5:23.0505 6:-15.8748 7:-0.656398 
-4096 1:2.07507 2:-9.88665 3:-595.012 4:1.0633 5:0.024703 6:-21.3098 7:-0.174623 
4096 1:5.96909 2:0.806594 3:-137.966 4:0.38146 5:13.5577 6:-6.65528 7:-0.381656 
-4096 1:3.69581 2:6.6079 3:118.597 4:0.207814 5:7.29257 6:22.6344 7:-0.169214 
-4096 1:-9.15152 2:6.20336 3:-62.8364 4:-0.0801572 5:-2.3466 6:-1.62628 7:0.163797 
4096 1:0.692513 2:-6.06166 3:-185.712 4:0.528396 5:18.7854 6:-10.0215 7:-0.52558 
-4096 1:7.54953 2:4.06954 3:273.86 4:-0.341002 5:-1.46935 6:17.504 7:-0.0387653 
4096 1:-5.46279 2:4.99334 3:-44.3972 4:0.125211 5:-8.45458 6:-0.943786 7:0.00608477 
4096 1:-7.08163 2:7.76331 3:-234.371 4:0.510983 5:-3.36895 6:9.26857 7:-0.062171 
-4096 1:5.87011 2:-4.37617 3:-266.846 4:0.498299 5:-1.62314 6:2.27304 7:0.0609098 
-4096 1:-11.2399 2:1.07479 3:-377.173 4:-0.00315701 5:-7.97874 6:-8.32106 7:0.361108 
-4096 1:10.1233 2:-1.40877 3:-318.193 4:0.890398 5:2.15402 6:-11.0699 7:-0.141576 
-4096 1:4.78521 2:2.50237 3:-238.458 4:0.364037 5:-14.2842 6:-1.39721 7:0.118901 
-4096 1:8.93563 2:-1.54319 3:-142.534 4:0.801847 5:5.6069 6:3.45557 7:-0.318493 
4096 1:-13.4922 2:22.7106 3:343.742 4:-0.981458 5:-11.1609 6:37.8185 7:-0.0100997 
4096 1:6.0384 2:4.23309 3:66.1725 4:0.337285 5:-15.503 6:21.5612 7:0.380342 
4096 1:5.2325 2:-1.02475 3:320.434 4:-0.219485 5:4.5558 6:5.47281 7:-0.343109 
-4096 1:7.4337 2:4.58695 3:-19.1746 4:-0.136588 5:-9.70883 6:8.45338 7:-0.106092 
-4096 1:8.74152 2:-6.29086 3:-44.9422 4:0.547507 5:14.403 6:-2.53789 7:-0.339593 
4096 1:0.238152 2:-1.97724 3:-119.562 4:0.22862 5:-0.261458 6:-11.4974 7:-0.089633 
-4096 1:-8.32925 2:2.81343 3:-394.21 4:1.01934 5:3.68402 6:10.2954 7:-0.210558 
-4096 1:11.7651 2:-1.21614 3:-327.72 4:0.75694 5:-8.51628 6:-5.27428 7:0.288906 
-4096 1:-7.02076 2:-1.72598 3:-467.543 4:0.273469 5:3.83912 6:-8.92889 7:-0.0415271 
4096 1:-7.44762 2:8.13211 3:-156.361 4:-0.0187515 5:9.01444 6:16.1543 7:-0.418652 
-4096 1:4.91077 2:-6.60921 3:-356.215 4:0.374265 5:10.5752 6:-12.2752 7:-0.351475 
-4096 1:-1.89672 2:-9.363 3:-129.321 4:-0.0598519 5:27.7768 6:-25.6315 7:-0.510234 
-4096 1:-5.41868 2:1.17537 3:-385.983 4:0.853755 5:1.99661 6:3.13403 7:0.116835 
4096 1:-11.1648 2:4.18866 3:-425.032 4:0.557907 5:6.47707 6:4.76077 7:-0.137754 
-4096 1:-2.5611 2:1.23853 3:39.1044 4:-0.311816 5:-7.24007 6:11.8634 7:-0.0666802 
-4096 1:1.18329 2:6.78135 3:-227.573 4:0.619402 5:-9.77784 6:16.6348 7:0.416262 
4096 1:-14.0389 2:3.0998 3:-249.365 4:0.487151 5:8.85415 6:-1.41598 7:-0.365759 
-4096 1:4.35265 2:1.88134 3:150.65 4:-4.79253e-05 5:0.477611 6:3.59685 7:-0.221751 
-4096 1:-0.959776 2:-5.8035 3:-68.4219 4:0.512847 5:-1.13893 6:-18.8595 7:-0.141438 
-4096 1:0.0722739 2:-4.64357 3:-245.646 4:0.463018 5:-3.49352 6:-6.5878 7:-0.0970158 
-4096 1:-13.0971 2:-1.15691 3:-683.487 4:-0.207586 5:-8.95714 6:-14.4921 7:-0.000190562 
-4096 1:-2.8973 2:-1.62189 3:-350.773 4:0.239008 5:5.22595 6:-1.45157 7:0.0925762 
-4096 1:19.5404 2:-6.64682 3:196.444 4:0.525981 5:10.1873 6:-6.42779 7:-0.424825 
-4096 1:20.6754 2:-6.16576 3:365.169 4:0.380845 5:22.0014 6:-0.378935 7:-0.625942 
4096 1:2.23481 2:-0.251796 3:-282.159 4:0.191953 5:-1.98006 6:-3.94738 7:0.0938255 
4096 1:12.2757 2:-4.34218 3:-129.336 4:0.332256 5:-1.15051 6:2.51587 7:-0.192363 
-4096 1:-16.8655 2:12.7534 3:-212.962 4:-0.523897 5:-32.6227 6:17.3728 7:0.88541 
4096 1:8.91968 2:-6.32982 3:-168.635 4:1.09848 5:-4.1855 6:-4.07613 7:0.000891027 
-4096 1:-10.2051 2:-1.58217 3:-255.655 4:-0.149707 5:1.34033 6:1.45495 7:-0.187357 
4096 1:-8.09828 2:-0.0159596 3:-432.233 4:0.3951 5:-5.2072 6:3.91378 7:0.194956 
-4096 1:15.2669 2:-6.95916 3:-34.6199 4:0.636605 5:14.5439 6:-7.54665 7:-0.400252 
4096 1:-11.3862 2:3.19911 3:-202.341 4:0.224416 5:5.50291 6:-0.220744 7:-0.282001 
4096 1:-5.13634 2:-5.12707 3:-326.311 4:0.696813 5:-2.46619 6:-14.9654 7:0.184112 
-4096 1:-5.99899 2:1.85654 3:-336.851 4:0.953584 5:1.86761 6:-3.15118 7:-0.336553 
-4096 1:-5.9807 2:-3.47472 3:24.9442 4:-0.4126 5:-14.8208 6:-14.4816 7:0.154588 
-4096 1:-2.86696 2:7.51041 3:-351.47 4:0.621355 5:-7.21016 6:5.25308 7:0.197031 
-4096 1:-1.19255 2:2.19887 3:-282.867 4:0.605827 5:-3.02168 6:2.65405 7:-0.216799 
-4096 1:-8.93542 2:-8.16228 3:-377.021 4:0.549033 5:-11.3977 6:-20.0776 7:0.244618 
4096 1:5.70007 2:-7.11782 3:142.266 4:-0.143868 5:22.1305 6:-12.9653 7:-0.588155 
-4096 1:-13.6608 2:13.9841 3:-142.16 4:-0.0868433 5:-23.2696 6:23.4396 7:0.794336 
-4096 1:-4.26242 2:-5.75618 3:-415.064 4:0.449598 5:2.16418 6:-11.5971 7:0.299952 
-4096 1:4.08467 2:-1.84021 3:53.4403 4:0.274884 5:10.1893 6:0.477665 7:-0.161081 
-4096 1:-14.0597 2:8.8732 3:-355.205 4:1.07478 5:-4.39718 6:16.835 7:0.0989487 
-4096 1:1.95747 2:-0.86006 3:-173.948 4:0.336506 5:-3.92021 6:-11.0519 7:0.148642 
-4096 1:25.0451 2:-3.20987 3:32.2486 4:0.219236 5:8.32939 6:8.51761 7:-0.363252 
-4096 1:-6.89292 2:0.544994 3:-200.302 4:-0.093164 5:0.222551 6:-2.17555 7:-0.00504918 
-4096 1:6.96128 2:-3.03526 3:-157.677 4:0.584011 5:11.6997 6:-0.140891 7:-0.32563 
4096 1:26.6624 2:-1.16514 3:-4.35026 4:0.347469 5:29.7289 6:7.16416 7:-0.751822 
4096 1:-6.27055 2:2.60167 3:129.384 4:-0.0481031 5:3.75608 6:-3.25291 7:-0.0741972 
-4096 1:1.55695 2:-0.963415 3:-177.801 4:-0.171351 5:-12.9881 6:-9.13213 7:0.0730189 
-4096 1:26.9184 2:-9.16945 3:-17.02 4:0.93074 5:27.3958 6:-14.8112 7:-0.570112 
-4096 1:0.848188 2:13.1142 3:-3.64182 4:0.0489839 5:-15.4645 6:17.9551 7:0.0178554 
4096 1:2.53118 2:0.327459 3:-95.7546 4:0.230589 5:-5.13987 6:1.84063 7:-0.0916496 
4096 1:3.5283 2:4.1416 3:129.55 4:-0.480314 5:-9.45405 6:16.2876 7:-0.0970288 
-4096 1:-12.5051 2:2.93207 3:-167.648 4:-0.0825503 5:0.742361 6:-2.87495 7:-0.00177349 
-4096 1:-13.0834 2:11.8761 3:-78.8338 4:0.0850714 5:-2.73019 6:21.3869 7:0.0816343 
-4096 1:-9.61826 2:2.9336 3:12.443 4:-0.14921 5:7.36526 6:11.3645 7:-0.245726 
-4096 1:-6.17679 2:3.19829 3:-25.2288 4:0.0717488 5:5.57592 6:8.09807 7:-0.146761 
4096 1:-17.4704 2:17.0438 3:-163.764 4:0.306949 5:-17.0673 6:11.7339 7:0.36709 
-4096 1:-6.94839 2:3.90925 3:-293.962 4:-0.517348 5:10.5141 6:-7.32789 7:-0.366215 
-4096 1:-11.8791 2:7.3909 3:-184.221 4:-0.147271 5:-18.4387 6:8.49963 7:0.275314 
-4096 1:-3.08878 2:2.21411 3:-182.407 4:-0.220647 5:13.8839 6:-0.88618 7:-0.348909 
-4096 1:-13.7943 2:3.51455 3:-434.532 4:0.237362 5:3.02913 6:-1.49407 7:-0.0994272 
-4096 1:7.29886 2:-0.271575 3:-283.351 4:0.145687 5:2.74299 6:-7.76289 7:0.417197 
-4096 1:-6.26626 2:5.62491 3:-298.931 4:0.0615513 5:-6.7917 6:4.13324 7:0.334121 
-4096 1:1.72096 2:4.6638 3:-395.903 4:0.285985 5:1.40656 6:1.14918 7:0.345691 
-4096 1:5.49416 2:1.14134 3:-160.111 4:-0.516026 5:-2.08427 6:-0.5381 7:0.341056 
4096 1:-0.135127 2:5.41736 3:-1119.71 4:0.764398 5:22.1191 6:-8.6129 7:-0.0628516 
-4096 1:4.79125 2:3.8311 3:52.533 4:-0.420692 5:1.75422 6:4.67179 7:-0.000612015 
-4096 1:-0.333203 2:0.176608 3:278.292 4:-0.047957 5:3.92191 6:9.05946 7:-0.344941 
-4096 1:6.35949 2:1.46735 3:117.884 4:0.302745 5:-0.650716 6:8.26521 7:-0.212946 
-4096 1:3.69594 2:-5.69814 3:-279.689 4:0.273588 5:23.7805 6:-18.8544 7:-0.609962 
-4096 1:-0.439444 2:-0.383718 3:-232.229 4:0.413181 5:10.73 6:2.70993 7:-0.369985 
-4096 1:-8.92848 2:-5.05079 3:-248.195 4:0.440692 5:-5.19574 6:-10.0328 7:-0.0390319 
-4096 1:-12.8838 2:9.31762 3:-22.2885 4:0.222402 5:-7.4813 6:2.05721 7:0.045321 
4096 1:-20.5513 2:10.9766 3:-92.8162 4:-0.35059 5:-19.7735 6:3.17623 7:0.420796 
-4096 1:-18.5524 2:7.26493 3:-180.707 4:0.604637 5:5.97876 6:5.8525 7:-0.261476 
-4096 1:-17.8755 2:20.3831 3:345.66 4:-0.615606 5:-21.679 6:16.5706 7:0.403245 
-4096 1:-7.30836 2:-1.73992 3:-207.244 4:0.47737 5:13.8352 6:-9.77063 7:-0.496902 
4096 1:-3.21243 2:-4.21226 3:-394.271 4:1.05994 5:13.047 6:-14.6223 7:-0.472546 
4096 1:-24.3886 2:7.88847 3:-131.945 4:0.694749 5:2.05284 6:8.20618 7:-0.195739 
4096 1:-12.3614 2:1.01991 3:-361.35 4:0.410859 5:7.90839 6:-8.07163 7:-0.215791 
-4096 1:6.95611 2:1.74248 3:89.4811 4:0.199611 5:-12.0645 6:2.13377 7:0.152942 
-4096 1:-14.4041 2:-3.74747 3:-622.131 4:0.215765 5:-6.25957 6:-19.8199 7:0.43058 
-795.1929292673659 1:3.58178 2:-2.45827 3:-2159.85 4:1.98156 5:-1.62736 6:-3.91169 7:0.649308 
-4096 1:-20.5698 2:13.3232 3:-222.032 4:0.435246 5:8.74669 6:2.63016 7:-0.00417661 
4096 1:3.40963 2:-4.59469 3:-348.709 4:0.67925 5:-1.27889 6:-5.19024 7:0.113072 
-4096 1:11.4686 2:-10.427 3:-147.193 4:0.795346 5:4.85277 6:-17.4061 7:-0.138011 
4096 1:-13.4009 2:1.57481 3:-411.306 4:0.146122 5:-8.23161 6:-2.67722 7:0.289195 
4096 1:-2.59879 2:-1.02667 3:-123.638 4:0.508712 5:-3.28685 6:-8.85102 7:0.056413 
-4096 1:-3.24229 2:-1.55111 3:-14.9475 4:0.533672 5:2.17318 6:-10.2506 7:-0.0669746 
-4096 1:-10.0879 2:3.0015 3:-449.514 4:0.383251 5:2.87313 6:2.84197 7:-0.226291 
4096 1:1.92004 2:-4.07645 3:-432.518 4:0.116737 5:-1.94454 6:-4.06009 7:-0.16057 
342.0417822744059 1:-0.994609 2:-0.536133 3:-303.39 4:-0.099439 5:-13.438 6:11.186 7:0.0274109 
-4096 1:17.0376 2:-7.89536 3:-173.647 4:0.751097 5:10.363 6:-11.8873 7:-0.289574 
-4096 1:13.2556 2:-7.15981 3:-189.419 4:0.774647 5:14.1839 6:-13.4344 7:-0.370523 
-4096 1:-1.75658 2:1.518 3:-34.5834 4:0.433649 5:1.75044 6:-8.06909 7:0.157842 
-4096 1:-13.5174 2:1.66374 3:-243.09 4:0.408083 5:-1.77348 6:-0.621498 7:0.0943247 
4096 1:8.67578 2:-6.45319 3:-301.677 4:0.404713 5:5.09809 6:-18.0515 7:-0.0391683 
4096 1:8.32706 2:-8.79306 3:-406.151 4:0.728377 5:11.8546 6:-9.22892 7:-0.28224 
-4096 1:-19.9451 2:1.72956 3:-295.754 4:0.0205326 5:-0.753577 6:-9.19511 7:0.110952 
-4096 1:3.52423 2:-10.7091 3:-352.839 4:0.546326 5:9.89618 6:-16.527 7:-0.269396 
-4096 1:-0.472331 2:-5.59117 3:-423.396 4:0.825381 5:-7.07056 6:-7.15114 7:0.216209 
-4096 1:-0.443031 2:-0.0588169 3:-396.091 4:0.738736 5:-10.5557 6:8.58819 7:0.289311 
-4096 1:-10.824 2:9.55625 3:140.415 4:-0.834429 5:-5.67554 6:9.17855 7:-0.102027 
4096 1:-15.0704 2:9.67472 3:-98.893 4:-0.272669 5:2.05847 6:6.82724 7:-0.1334 
-4096 1:-21.8881 2:1.37218 3:-1189.03 4:0.785469 5:-9.79399 6:-5.00299 7:1.0208 
4096 1:1.87508 2:1.28386 3:278.28 4:-0.250539 5:-4.33987 6:8.30542 7:-0.144309 
-4096 1:10.6836 2:-8.64518 3:-67.4103 4:0.379958 5:15.3733 6:-13.103 7:-0.468552 
-4096 1:-8.12776 2:4.66136 3:5.8002 4:0.0964228 5:1.87512 6:-3.39249 7:-0.0241366 
-4096 1:-11.312 2:3.20327 3:-290.576 4:0.681474 5:-0.617765 6:-12.7585 7:0.00913986 
-4096 1:14.3584 2:-4.07536 3:93.9257 4:0.209058 5:-12.1787 6:0.422593 7:-0.0394499 
-4096 1:-0.669197 2:-5.13295 3:-446.326 4:0.701871 5:-3.30487 6:-17.8016 7:0.260798 
4096 1:21.0212 2:0.648654 3:118.683 4:0.786939 5:10.1617 6:15.1526 7:-0.349424 
-4096 1:-15.2425 2:-6.44418 3:-374.403 4:-0.142047 5:16.1512 6:-21.4296 7:-0.490648 
-4096 1:8.18093 2:0.354667 3:68.8192 4:0.491686 5:2.82531 6:9.69734 7:-0.44227 
-4096 1:-3.15256 2:11.571 3:-139.643 4:0.0994691 5:-3.0998 6:9.46877 7:0.247361 
-4096 1:-7.08107 2:16.3108 3:-234.719 4:0.158669 5:-10.6764 6:13.1504 7:0.471372 
-4096 1:-4.07427 2:-3.00942 3:-168.396 4:0.3365 5:11.9316 6:-6.36425 7:-0.344722 
4096 1:-8.95392 2:6.98438 3:-82.9691 4:0.353248 5:-14.1902 6:-7.02065 7:0.365993 
-4096 1:-8.53335 2:-2.80164 3:-264.817 4:0.41302 5:-3.2184 6:-14.3702 7:0.0520668 
-4096 1:-11.2312 2:-0.211625 3:-449.211 4:0.325567 5:2.72197 6:-5.79053 7:-0.0746605 
4096 1:2.15889 2:2.65988 3:-172.238 4:0.390192 5:14.6728 6:0.74088 7:-0.339107 
-4096 1:-14.6924 2:14.3625 3:-182.052 4:0.0902449 5:-7.8433 6:14.1225 7:0.220313 
-4096 1:-20.5558 2:20.1686 3:-30.3007 4:-0.243149 5:-17.3123 6:22.4568 7:0.528762 
-4096 1:7.90211 2:2.54221 3:4.93379 4:0.376785 5:-0.969504 6:1.68693 7:0.216731 
4096 1:-9.83711 2:13.6689 3:-232.863 4:0.529203 5:1.91443 6:31.2502 7:-0.229647 
4096 1:-5.94029 2:7.69525 3:-324.943 4:-0.629334 5:15.3658 6:12.2927 7:-0.426687 
-4096 1:-26.4322 2:7.76865 3:-49.0003 4:-0.393915 5:14.5482 6:0.386355 7:-0.453075 
-4096 1:-24.6181 2:5.66341 3:-686.96 4:0.195707 5:-11.0674 6:-12.2114 7:0.804993 
-4096 1:-9.95006 2:4.60262 3:-270.148 4:0.590292 5:-11.3627 6:14.3482 7:0.13919 
-4096 1:-0.201604 2:4.44222 3:-435.062 4:0.314594 5:-0.865636 6:4.39067 7:0.121086 
-4096 1:-1.65881 2:8.28094 3:-160.981 4:-0.263852 5:7.14363 6:18.6966 7:-0.343027 
-4096 1:9.77014 2:0.829683 3:-67.5522 4:0.211629 5:2.45322 6:-12.6432 7:-0.124329 
-4096 1:-19.9644 2:4.91936 3:-259.18 4:-0.607686 5:-0.560087 6:-11.6477 7:0.00567583 
-4096 1:-14.0425 2:-2.21417 3:-218.314 4:0.49892 5:7.81921 6:-15.1919 7:-0.0264282 
-4096 1:-2.65702 2:3.5034 3:-91.9111 4:0.570436 5:-5.00998 6:17.0618 7:-0.125464 
-4096 1:3.05116 2:-1.35737 3:13.0212 4:-0.0642573 5:3.11415 6:-0.653023 7:-0.248321 
-4096 1:0.668296 2:1.39379 3:-167.616 4:0.596163 5:8.17965 6:9.62247 7:-0.2648 
-4096 1:1.0116 2:6.13595 3:-228.806 4:0.264039 5:-20.018 6:11.3341 7:0.317501 
-4096 1:2.93936 2:-5.14033 3:-49.5406 4:-0.220196 5:9.08601 6:-6.27981 7:-0.264637 
-4096 1:-3.27705 2:-0.497959 3:-220.58 4:0.175738 5:1.3831 6:-4.86767 7:0.293245 
-4096 1:5.52447 2:-4.61091 3:-367.929 4:-0.13014 5:7.76746 6:-3.70817 7:-0.291495 
-4096 1:-11.1977 2:-2.57342 3:-475.612 4:0.768098 5:-12.1326 6:-4.69561 7:0.0468431 
-4096 1:-21.5473 2:14.5655 3:198.213 4:-0.254517 5:-1.70417 6:28.2014 7:-0.145774 
-4096 1:-6.22248 2:13.3619 3:359.027 4:0.269115 5:-3.91692 6:25.6663 7:-0.214322 
-4096 1:-9.3887 2:15.748 3:452.485 4:0.127327 5:1.3515 6:24.5714 7:-0.229619 
-4096 1:-20.3178 2:18.4854 3:-78.8869 4:-0.37794 5:-12.1331 6:19.5978 7:0.107855 
4096 1:-10.2765 2:1.85072 3:-446.629 4:0.75103 5:-15.33 6:2.90725 7:0.369131 
-4096 1:-3.42107 2:-4.34279 3:-587.269 4:1.20205 5:-3.94141 6:-12.7271 7:0.461718 
-4096 1:-8.94524 2:4.74786 3:61.8877 4:0.613625 5:-4.68893 6:9.66287 7:-0.0875524 
-4096 1:10.5888 2:-2.97008 3:195.449 4:0.522358 5:14.2105 6:7.58407 7:-0.46249 
4096 1:-0.722781 2:-3.68283 3:-753.543 4:0.813562 5:22.1046 6:-13.2056 7:-0.404924 
-4096 1:-17.0013 2:19.2055 3:-123.971 4:-0.31286 5:-5.59299 6:17.0686 7:0.537006 
-4096 1:-14.5478 2:8.77152 3:-51.475 4:-0.0196555 5:-8.74458 6:-7.05414 7:0.448777 
-4096 1:0.939337 2:0.751711 3:49.9036 4:0.023874 5:-5.38069 6:-2.83963 7:0.188912 
4096 1:-3.72164 2:1.02421 3:-217.28 4:0.188774 5:9.32566 6:4.62101 7:-0.383171 
-4096 1:-9.23983 2:3.3981 3:-539.807 4:0.206561 5:3.64434 6:-4.26548 7:-0.0208889 
4096 1:5.95079 2:-3.86209 3:-137.411 4:0.408753 5:6.50524 6:-3.05268 7:-0.155094 
-4096 1:-13.0251 2:0.329789 3:-315.635 4:-0.19312 5:-18.386 6:-7.04775 7:0.6505 
-4096 1:7.42241 2:-0.308065 3:-237.225 4:0.921378 5:8.16226 6:-5.96147 7:-0.131365 
-4096 1:14.888 2:-7.33981 3:214.439 4:0.363609 5:8.0201 6:0.510654 7:-0.285396 
-4096 1:-4.9459 2:-0.746671 3:-444.179 4:0.490977 5:2.46926 6:-11.9918 7:-0.205141 
-4096 1:-19.1063 2:9.42689 3:-300.164 4:0.234741 5:-10.4619 6:8.6081 7:0.186335 
-4096 1:-11.7411 2:3.57254 3:-275.029 4:0.196123 5:0.769349 6:2.78014 7:-0.0360866 
-4096 1:-17.1454 2:3.36742 3:-477.901 4:0.296575 5:-2.8099 6:-8.04115 7:0.0891776 
4096 1:-5.7947 2:5.52125 3:-346.315 4:0.231395 5:-3.32734 6:6.96782 7:0.0862737 
-4096 1:-2.55771 2:-0.279219 3:-347.471 4:0.633541 5:-1.97579 6:4.63869 7:-0.153979 
-4096 1:0.665455 2:11.716 3:135.333 4:-0.358377 5:-5.58281 6:13.8729 7:-0.119069 
-4096 1:2.60812 2:-7.74996 3:-113.377 4:0.654607 5:3.663 6:-11.6034 7:-0.127945 
4096 1:10.9499 2:-3.87909 3:-39.9066 4:0.683792 5:8.10292 6:-4.24506 7:-0.381327 
-4096 1:-16.5312 2:10.4492 3:-162.822 4:-0.293538 5:14.4561 6:3.27237 7:-0.250141 
-4096 1:-20.4037 2:5.50005 3:-399.137 4:-0.379024 5:8.06597 6:-3.1436 7:-0.307438 
-4096 1:-6.93885 2:2.17559 3:-432.52 4:0.368684 5:5.80604 6:1.93911 7:-0.199816 
-4096 1:-1.23811 2:-5.62789 3:-147.973 4:-0.0708892 5:-16.3504 6:-12.3152 7:0.802898 
4096 1:8.33889 2:-9.635 3:-411.842 4:0.872692 5:13.1332 6:-18.5325 7:-0.38773 
-4096 1:-3.85594 2:-2.42447 3:-385.595 4:0.203861 5:-3.10225 6:-6.36763 7:0.211439 
-4096 1:9.73255 2:-0.287836 3:-140.281 4:0.125535 5:4.8639 6:-6.57163 7:-0.240831 
4096 1:-11.1019 2:23.9736 3:-72.4095 4:0.397608 5:-6.50316 6:27.2111 7:0.303118 
4096 1:-11.6436 2:-1.75424 3:-352.072 4:0.167791 5:-4.1138 6:-15.3634 7:0.0121282 
-4096 1:10.9074 2:-5.35428 3:-250.384 4:0.732809 5:6.42498 6:-1.28108 7:-0.109076 
4096 1:-17.7731 2:10.6738 3:-112.036 4:-0.574405 5:-2.34296 6:5.65674 7:-0.118198 
4096 1:-24.0393 2:5.26202 3:-344.979 4:0.762458 5:3.4953 6:1.34061 7:-0.154781 
-4096 1:-18.0434 2:-1.58903 3:104.645 4:-1.86149 5:9.26732 6:-16.3911 7:-0.353803 
-4096 1:3.11338 2:-6.59038 3:-244.721 4:0.704878 5:11.8909 6:-9.82228 7:-0.173243 
4096 1:-6.77415 2:-3.37445 3:-269.062 4:0.590889 5:-6.07482 6:-3.28522 7:0.0883421 
-4096 1:-7.51966 2:-0.694787 3:-171.907 4:0.317964 5:-1.31259 6:-10.0789 7:0.0479019 
-4096 1:-0.406386 2:0.717497 3:86.8002 4:-0.46087 5:-0.0958363 6:-3.77397 7:-0.100651 
-4096 1:4.5186 2:-3.36047 3:-105.701 4:0.407571 5:-0.691899 6:-14.0633 7:-0.108568 
4096 1:-10.7389 2:5.55942 3:-446.594 4:0.271332 5:16.7911 6:5.2686 7:-0.464748 
-4096 1:-14.3051 2:0.800194 3:-159.046 4:-0.142777 5:-14.0909 6:-22.1783 7:0.522144 
4096 1:3.80686 2:-8.7533 3:-127.04 4:0.79882 5:9.98535 6:-19.5032 7:-0.210884 
4096 1:29.3023 2:-7.63907 3:142.585 4:0.886939 5:32.7431 6:-4.43588 7:-0.729678 
4096 1:4.51576 2:-5.98009 3:-473.095 4:1.08751 5:0.103817 6:-6.77905 7:-0.0499781 
-4096 1:-7.40164 2:1.69552 3:-82.5447 4:-0.557428 5:-21.8995 6:-5.96808 7:0.821048 
-4096 1:-19.2994 2:10.7382 3:-452.758 4:0.181525 5:9.18994 6:6.03832 7:-0.146141 
-4096 1:4.44073 2:1.46784 3:-322.351 4:0.14633 5:8.64529 6:-0.742523 7:0.0360727 
4096 1:-1.60222 2:0.263672 3:-194.16 4:0.313312 5:22.424 6:3.30996 7:-0.635527 
4096 1:-28.1373 2:7.12245 3:-484.932 4:-0.120807 5:6.23711 6:-5.0065 7:-0.0110095 
4096 1:-28.9861 2:7.39743 3:-508.225 4:-0.252927 5:8.48381 6:0.783015 7:-0.172635 
-4096 1:9.04754 2:-1.83653 3:11.8723 4:0.355756 5:22.2275 6:-2.90051 7:-0.685407 
-4096 1:-18.4959 2:6.91472 3:-273.612 4:-0.137756 5:-3.08914 6:-1.504 7:0.178463 
-4096 1:9.6145 2:1.08538 3:349.705 4:-0.0473293 5:5.36247 6:2.46709 7:-0.493485 
-4096 1:0.0773717 2:-2.32844 3:-20.5625 4:0.0567262 5:14.3894 6:-17.07 7:-0.330301 
-4096 1:-4.63008 2:-6.0906 3:-217.445 4:0.735953 5:1.41589 6:-9.98722 7:-0.0303206 
4096 1:-6.21929 2:2.30355 3:-56.7803 4:0.170373 5:-9.20701 6:-8.99198 7:0.145278 
-4096 1:-11.3661 2:4.08122 3:-100.123 4:-0.627333 5:-9.05499 6:-0.697701 7:0.26263 
-4096 1:1.67606 2:0.665245 3:-117.722 4:-0.10797 5:-4.0427 6:-11.1651 7:0.179346 
-4096 1:-12.9529 2:4.75394 3:-132.159 4:-0.407112 5:-18.3511 6:-2.62252 7:0.243178 
-4096 1:-12.4568 2:4.29452 3:-226.996 4:-0.498845 5:-8.91173 6:-9.15614 7:0.326857 
4096 1:13.9683 2:-2.95487 3:-353.366 4:0.816103 5:1.55998 6:-4.73385 7:-0.0916574 
-2256.535598306647 1:16.4758 2:-11.1315 3:-20.4217 4:0.315937 5:-7.25139 6:-20.8125 7:-0.144991 
